#Parameter# /vanilla-lstm-builder/_0 {256,4} 16385 ZERO_GRAD
+2.79041916e-01 +2.17513572e-02 +6.59655109e-02 +1.25596315e-01 +8.77950937e-02 +4.71199811e-01 +8.13184306e-02 +2.14673236e-01 +1.01423208e-02 -8.85253325e-02 -1.77108005e-01 -1.24737874e-01 +2.85491705e-01 -2.53374338e-01 -3.53049845e-01 -1.67911127e-01 +6.44070268e-01 -5.74331842e-02 -4.76184368e-01 -3.70201439e-01 -1.09807804e-01 +1.44484282e-01 -1.17895817e-02 -4.34053950e-02 -2.71069258e-02 +2.96379894e-01 -3.67886186e-01 -3.27087820e-01 -2.23394066e-01 -6.05222397e-02 +3.36085409e-01 +1.95402756e-01 +2.08308265e-01 +2.45128885e-01 +2.38746211e-01 +1.33374080e-01 +1.12687923e-01 +6.15819246e-02 +1.14749387e-01 +1.62654564e-01 +4.27839309e-02 -4.01391715e-01 -1.46770358e-01 +5.39046749e-02 +2.49039516e-01 +8.00139755e-02 -2.52411246e-01 +2.15647101e-01 +1.21361263e-01 -1.83696106e-01 +1.49773374e-01 -2.38907978e-01 +2.89010912e-01 -2.28024691e-01 +1.12653054e-01 +3.17664921e-01 +2.36959532e-01 -2.74360001e-01 -2.52684508e-03 +9.07549784e-02 -4.33624387e-02 +2.61872828e-01 +4.82524931e-01 -2.58581281e-01 +3.07783276e-01 +7.05344677e-02 +5.38333394e-02 +3.47487360e-01 -5.55440001e-02 -1.59772575e-01 -1.97785888e-02 -2.43455935e-02 -2.41010878e-02 +1.37340128e-01 +2.16895998e-01 -7.05739632e-02 +3.55378479e-01 +6.55967742e-02 +4.26764973e-02 +1.73168853e-01 +2.51055360e-02 +8.41448307e-02 +3.46398763e-02 -8.40183347e-02 +2.24672988e-01 +2.13918760e-02 -6.16239645e-02 -9.84858349e-02 +1.17613129e-01 +1.12553827e-01 +1.69917092e-01 -1.29892975e-01 -2.78698485e-02 -4.12971713e-02 -1.63144991e-01 +7.93720260e-02 -1.12302184e-01 -4.04570512e-02 +5.95673062e-02 +2.16925472e-01 -5.16825356e-02 +1.45128742e-01 -1.45556852e-02 -2.11984999e-02 +1.62665963e-01 +4.06083345e-01 -1.73871905e-01 +9.13010016e-02 +4.78348970e-01 +7.82004818e-02 -3.38782638e-01 +1.06649920e-01 -1.14715591e-01 -1.97842270e-01 +9.39754844e-02 +7.77386278e-02 +1.25394277e-02 +2.54278094e-01 -9.07967240e-03 +1.17130719e-01 +9.75769013e-02 +8.77903178e-02 +9.01502147e-02 -3.62443365e-03 +5.99253103e-02 -3.80169339e-02 +1.38028145e-01 +4.22327733e-03 +6.16215169e-01 +2.97874287e-02 +2.71978050e-01 +3.23339611e-01 -2.80628018e-02 +4.49997842e-01 -9.73558202e-02 +1.56932876e-01 +2.03004763e-01 +4.86941785e-02 -1.10231057e-01 -1.88634936e-02 +4.44046497e-01 +1.38776287e-01 -2.85268128e-01 -1.03879496e-02 +2.52369285e-01 -5.24378531e-02 -3.75797182e-01 -5.52345552e-02 +3.68805617e-01 +9.31823775e-02 +3.67555887e-01 +1.96761452e-02 +1.75529718e-01 +1.77357450e-01 -1.04289822e-01 -1.33381993e-01 +1.04560349e-02 -2.08944947e-01 +2.35139817e-01 +4.12217319e-01 -2.83361021e-02 -6.57488359e-03 +2.45355725e-01 +2.00421765e-01 -3.03645134e-01 +1.03947379e-01 +8.38154554e-02 +1.28175765e-01 +1.54283017e-01 +2.63632327e-01 -1.85325280e-01 -1.03729941e-01 +3.04212898e-01 +1.91862226e-01 -2.85174698e-01 -1.50936190e-02 +2.98695982e-01 -2.66468376e-01 +2.62535781e-01 +1.30637139e-01 +2.98657149e-01 -1.12823851e-01 -1.63653433e-01 +5.08892834e-01 +1.23850442e-02 -3.78314257e-02 +2.07145557e-01 +1.85130194e-01 -1.26928780e-02 +2.95129508e-01 +1.13351561e-01 -7.53884465e-02 -7.16445684e-01 -5.25436938e-01 +2.97310259e-02 +1.32464051e-01 +5.96296072e-01 +1.54791221e-01 +1.60685614e-01 -1.58031508e-01 +2.61539191e-01 -1.99562892e-01 -6.79408312e-01 +4.01774645e-02 +8.28433990e-01 -2.90865358e-03 -4.23917919e-01 +8.64696354e-02 +3.74508917e-01 +1.82944126e-02 +5.50992012e-01 +5.13548017e-01 -8.71660888e-01 -6.01260006e-01 -3.98898512e-01 +4.32737291e-01 +2.47526750e-01 -5.29254861e-02 -1.48753688e-01 -4.20006216e-01 +4.50799227e-01 +3.97466570e-01 -1.51072359e-02 -3.50883454e-01 -3.42464805e-01 +1.82680309e-01 +2.07429007e-01 -9.74465013e-02 +5.04518390e-01 -2.24478692e-01 -1.28128782e-01 +2.69591272e-01 +2.42940813e-01 -9.95319009e-01 +1.63091972e-01 +2.12207869e-01 +7.88549721e-01 -6.24955818e-02 +2.29700118e-01 +4.52821292e-02 -2.97148049e-01 +6.93994109e-04 +1.88043658e-02 +2.60310322e-01 -3.84820104e-01 -8.23253393e-01 -1.77112818e-01 -5.65752864e-01 +6.13327265e-01 -1.10344701e-01 -1.34061024e-01 -1.20741822e-01 +1.04524083e-02 +7.56689131e-01 -6.32786080e-02 -6.13656402e-01 -1.68950945e-01 +5.26477136e-02 -3.47699933e-02 -2.11994097e-01 +1.43537670e-01 +1.04981653e-01 +9.70588718e-03 -1.93994064e-02 -2.95001753e-02 -4.91218921e-03 +8.53927135e-02 +1.08647384e-01 -1.20270355e-02 -1.14659801e-01 -6.62948564e-02 +1.20132864e-01 +3.05958521e-02 -2.22581431e-01 +3.12413462e-02 -8.98904279e-02 +5.07940948e-02 +1.12945043e-01 +2.45599784e-02 -4.12535220e-02 -9.72623527e-02 -1.01533249e-01 +1.31556585e-01 -2.16935217e-01 +6.80706277e-02 +1.62959248e-01 +2.02928185e-01 -2.53483415e-01 +1.95933565e-01 -1.11130632e-01 -1.95075035e-01 -1.78314567e-01 -3.67494822e-02 +5.91639765e-02 -1.55919209e-01 -2.29533836e-01 -1.29551992e-01 -1.24077260e-01 -1.14619486e-01 -1.96993530e-01 +1.98205560e-01 -1.95135579e-01 +5.06095625e-02 -6.88108057e-02 -2.26744404e-03 +1.93936890e-03 -1.96333542e-01 -5.43787470e-03 -1.58358112e-01 +5.62106036e-02 -3.57964784e-02 -2.30404697e-02 -8.03736448e-02 +1.07989319e-01 +2.99270809e-01 +3.72929499e-02 +7.77526647e-02 +1.30621329e-01 -1.64035819e-02 -3.07707697e-01 -2.06449982e-02 +1.58640951e-01 +7.03222081e-02 -5.69966026e-02 -9.22071710e-02 -2.20210195e-01 -1.54623806e-01 +1.23111501e-01 +8.33258256e-02 +3.64234686e-01 +6.02892600e-02 -6.60384297e-02 +1.49736047e-01 +5.89766130e-02 +7.76096135e-02 -9.04744714e-02 +8.45624655e-02 -1.85199901e-01 -2.40003504e-02 -7.45314434e-02 -1.55204860e-02 -1.41364530e-01 -8.35972950e-02 +3.62401158e-02 -1.54572919e-01 -1.08258992e-01 -1.12847693e-01 -1.63294345e-01 -2.60040835e-02 -1.31844282e-01 -2.44661905e-02 -4.64727404e-03 +1.05728870e-02 -6.05671741e-02 -6.65234849e-02 -3.71584445e-02 +8.16567689e-02 -4.78644483e-02 +7.73898885e-02 -1.35715365e-01 -1.60635933e-01 -5.79219572e-02 +7.96688050e-02 -7.58580565e-02 -1.51145667e-01 +1.64172590e-01 -4.05615419e-02 -2.29062997e-02 +2.87051231e-01 -1.47149134e-02 +1.73124731e-01 +1.20180333e-02 -1.06230468e-01 +1.91063136e-02 +4.36996017e-03 -5.43824397e-02 +1.73377216e-01 -1.02431707e-01 +4.11016420e-02 +2.08169416e-01 +2.94597987e-02 +1.92972813e-02 +6.79775476e-02 -1.62043437e-01 +6.10266775e-02 +1.23219170e-01 +1.42945051e-01 -1.35926753e-01 +1.82484224e-01 +2.92845219e-01 +1.95773672e-02 -6.39865920e-02 -9.59375426e-02 +9.85711720e-03 +9.81374644e-03 +7.60833323e-02 -6.16108328e-02 -2.09821343e-01 -9.83221531e-02 +1.61463961e-01 +7.22646713e-02 -1.40866086e-01 +8.68011340e-02 +2.61043701e-02 -5.44734523e-02 +6.97508305e-02 +1.76441431e-01 +8.86290222e-02 -8.72529000e-02 -3.45228873e-02 -1.85193136e-01 -1.91001087e-01 +6.68918341e-02 +8.56300592e-02 -8.92020613e-02 -7.68149504e-03 -1.36635080e-01 +6.40937239e-02 -2.68004974e-03 -1.16736419e-01 -6.36973698e-03 +1.16300948e-01 +1.66377856e-03 -8.59098881e-03 -6.54629841e-02 +7.42720291e-02 +5.01438417e-02 -2.73764610e-01 -7.57590532e-02 -6.17741384e-02 +2.56980639e-02 -4.96058352e-02 -1.27275884e-01 -1.33168906e-01 -3.44984680e-02 +8.31105262e-02 -1.17224432e-03 +1.12970807e-01 -5.51166646e-02 +1.31029695e-01 -1.41884983e-01 +3.27822454e-02 +1.89173877e-01 -8.54392052e-02 +3.04107741e-02 +5.38783185e-02 -3.35850827e-02 -4.85386886e-02 +1.51345894e-01 +1.40050441e-01 -2.54881438e-02 +8.88024271e-03 +3.19648445e-01 +3.61018538e-01 +6.59495294e-02 +4.36908454e-01 -2.33652040e-01 +3.29192370e-01 +2.59717643e-01 -1.06637338e-02 +2.65136659e-01 -2.43400633e-01 -5.72634265e-02 +6.84650913e-02 +1.04370296e-01 +3.83667760e-02 -3.43716472e-01 -5.13965376e-02 -6.97070658e-02 -4.04020362e-02 -8.87075886e-02 -1.84874028e-01 -8.92643258e-03 +5.23076020e-02 +1.55008808e-01 -3.01042855e-01 +3.27193961e-02 +1.23815402e-01 -4.68801707e-01 -3.60416174e-01 -1.22636378e-01 -3.68702739e-01 +1.51513860e-01 -2.50409096e-02 -9.75245014e-02 -2.94426292e-01 -1.15896337e-01 +2.87268341e-01 -2.59594172e-01 -1.40039057e-01 -3.26685637e-01 +4.72884119e-01 +1.27783984e-01 +2.44727433e-01 +1.95153743e-01 +4.38143723e-02 +3.77487481e-01 -1.37377484e-02 +1.83046341e-01 +1.48420617e-01 +3.44559580e-01 +3.86403166e-02 +1.11500934e-01 +5.37710860e-02 +1.12235127e-02 +2.22006202e-01 +3.00993681e-01 -1.40611291e-01 -1.09981120e-01 +1.27446160e-01 +4.02829163e-02 -2.72955835e-01 -7.77926436e-03 -1.64779991e-01 -2.13608265e-01 -5.52837968e-01 -1.31416246e-01 -1.14063211e-01 -2.95842648e-01 -2.61527821e-02 +2.21062183e-01 -4.55458790e-01 +3.45423788e-01 -4.28179232e-03 -1.88978776e-01 -6.84920847e-01 +1.79174557e-01 -3.31963897e-01 +2.65354514e-01 +2.41280779e-01 -2.71817576e-02 +3.77580971e-02 +4.05244827e-02 -2.11951006e-02 -3.75591040e-01 +9.79372710e-02 -5.75403690e-01 +4.55000103e-01 -1.35359094e-01 +1.18209153e-01 -2.42549866e-01 -1.44382313e-01 -4.32151332e-02 -5.82801439e-02 -2.04060510e-01 +1.30171388e-01 -2.63734251e-01 +4.48175222e-02 -1.12643458e-01 -4.62553352e-01 +5.12053728e-01 +3.31763923e-01 +7.29464665e-02 +2.34761033e-02 +4.64621112e-02 -2.23722383e-02 -5.63781381e-01 -3.93945724e-01 +1.29851177e-01 +3.07656109e-01 +1.95233479e-01 +1.07800417e-01 +1.21374905e-01 -2.52699144e-02 +3.72454792e-01 +8.26633349e-02 -1.23038433e-01 +1.02555297e-01 +6.00755103e-02 -7.49219716e-01 -5.14150299e-02 -3.84513319e-01 +2.88753528e-02 -1.36445746e-01 +3.54695648e-01 +3.09055865e-01 +1.79564863e-01 -1.22847736e-01 -1.33078903e-01 +5.04362583e-01 +4.76073354e-01 +8.25046226e-02 +4.57298532e-02 +8.81191790e-02 +1.80390134e-01 -9.99832675e-02 +1.61518246e-01 +1.61977515e-01 +4.28061262e-02 +6.42772973e-01 +8.10547471e-02 +2.10310593e-01 -1.72298685e-01 -1.74360543e-01 +4.37382050e-02 +6.09518662e-02 -4.31820303e-02 -5.25765866e-02 +1.05925702e-01 -3.47583406e-02 +1.36337250e-01 -5.36177568e-02 +4.83597182e-02 +1.91160798e-01 -8.88496116e-02 -9.44768190e-02 +1.10287465e-01 -1.97515711e-02 -4.85064089e-02 -4.79210690e-02 +1.73056111e-01 -8.12186394e-03 -4.78311032e-02 +2.01844007e-01 +3.53168882e-02 +1.01359546e-01 +1.06481053e-01 +1.42291458e-02 +1.61420971e-01 +3.77466828e-01 +3.25322986e-01 +2.32454568e-01 +2.78375745e-01 +1.73443723e-02 +1.54910147e-01 -2.45784577e-02 -5.94680719e-02 -1.25536039e-01 -9.25005525e-02 -2.27560662e-02 +2.70796530e-02 -9.58001018e-02 -1.14925824e-01 +6.06487453e-01 +7.07262233e-02 +1.61031947e-01 -8.75700340e-02 +6.93877116e-02 -1.89251378e-02 +4.03429419e-01 +3.99572670e-01 -2.15171680e-01 -3.22548360e-01 +1.97289139e-01 +1.92657977e-01 -3.07646804e-02 -1.69288933e-01 +1.79957107e-01 +2.18867436e-01 -2.23188531e-02 +3.98968220e-01 -3.98937017e-02 -6.62090257e-03 +1.00439280e-01 +2.42173634e-02 -3.29425603e-01 +1.61646783e-01 -6.42318428e-02 +1.32928371e-01 +2.40684934e-02 +9.45693702e-02 -1.94689542e-01 -1.06783427e-01 -9.07447636e-02 -4.89595868e-02 +2.37840116e-01 -2.68057704e-01 +1.52606934e-01 -1.63719818e-01 -2.17582509e-01 +1.40754789e-01 +9.09081660e-03 -9.26536135e-03 +1.50262669e-01 +2.36020237e-02 -6.14391116e-04 -3.15966904e-02 -4.00650054e-02 +5.63550711e-01 +5.51631808e-01 +6.57027811e-02 -1.73869744e-01 -3.62575948e-02 +2.21611008e-01 -3.38334143e-01 -5.34264967e-02 +3.15501869e-01 +2.10726768e-01 +2.63571322e-01 +1.73739865e-01 +2.24634573e-01 -8.87294263e-02 +1.22454293e-01 -6.21272586e-02 +1.14552483e-01 +1.55723557e-01 +6.55851066e-02 +5.79145178e-02 -2.09952495e-03 -4.74252254e-02 -1.28221989e-01 +3.33067700e-02 +3.22090656e-01 +4.17963386e-01 -3.21292669e-01 +3.03104848e-01 +3.37307513e-01 -1.12060058e+00 -1.15558594e-01 -7.02234134e-02 -2.81371444e-01 -2.67377645e-01 -3.20343733e-01 -8.59797001e-01 -3.32797438e-01 -1.37435317e-01 +3.94827604e-01 -1.00639462e+00 -1.00943007e-01 +8.37400615e-01 -7.47289240e-01 -2.93083727e-01 +3.13867092e-01 -5.70465662e-02 -4.01118517e-01 -2.28693023e-01 -2.13153765e-01 +8.50997329e-01 +7.77425110e-01 -9.63955641e-01 +5.76989353e-01 +1.33030444e-01 -8.21960419e-02 +2.39909008e-01 +4.41240579e-01 -1.88405812e-01 +1.58826053e-01 +6.23556636e-02 +9.65555727e-01 -5.01774549e-01 -2.04131618e-01 -3.41695786e-01 -8.48005414e-01 +2.75297672e-01 -1.47913173e-01 +3.89461249e-01 +2.09537700e-01 -3.69381458e-01 -7.20103502e-01 +3.56276333e-01 -2.52193332e-01 +3.63802344e-01 -7.73705363e-01 -5.51452823e-02 -3.67321640e-01 +1.32628247e-01 -4.53908205e-01 +2.06184700e-01 +9.78064686e-02 -9.32445705e-01 +2.98824701e-02 +8.15304995e-01 -1.34459883e-01 +8.01078916e-01 -6.19003236e-01 +2.96263546e-01 +8.62663150e-01 -9.56940949e-02 +1.20983988e-01 +1.14740536e-01 -1.00006670e-01 +6.66654408e-01 -1.04307286e-01 -4.49324638e-01 -9.88855772e-03 +2.76239574e-01 -9.45180580e-02 -4.28973837e-03 -1.48686618e-01 -8.79674479e-02 +1.12386368e-01 +3.52566123e-01 +4.27812897e-02 +6.88984543e-02 -2.35883743e-01 +1.00930743e-01 -1.82589680e-01 +1.26106869e-02 -2.04436276e-02 +2.22785994e-02 +7.57666156e-02 +1.01272970e-01 +3.38188946e-01 -4.26796764e-01 +1.82573274e-01 +3.01595896e-01 +1.43300563e-01 +1.30075309e-02 -2.80851573e-02 +1.12197921e-01 -2.12538674e-01 +1.91326737e-01 +3.92994553e-01 +1.40492067e-01 -1.43606350e-01 +9.39030275e-02 -3.63940895e-01 -1.52531952e-01 -6.58303052e-02 -1.49180740e-01 +2.15655580e-01 +1.20593973e-01 -1.75408691e-01 +1.05708353e-02 +1.02593102e-01 +1.30937800e-01 +2.15989619e-01 -1.50584951e-01 +1.33640021e-01 +1.07019313e-01 -2.22976948e-03 -6.70817271e-02 +9.13830101e-02 -1.17604218e-01 +2.23901749e-01 +1.83449224e-01 -3.74827653e-01 +1.05025910e-01 +1.89981475e-01 +4.28102948e-02 -2.96469122e-01 -1.28082242e-02 -2.97241628e-01 +8.18314552e-02 +3.09532564e-02 -1.79695427e-01 -4.86876909e-03 +2.01346017e-02 +1.36094153e-01 -7.62528973e-03 -2.08916701e-02 -9.16431725e-01 -1.54638514e-01 -4.23789956e-02 +7.02793477e-03 -4.03292030e-01 -6.26437515e-02 -3.09173018e-03 +1.53780669e-01 -5.67236766e-02 -4.40948963e-01 +1.21955529e-01 -1.81858361e-01 -7.84226581e-02 -2.04806000e-01 -1.65368438e-01 +6.60226345e-02 +1.11303605e-01 -3.64943668e-02 +1.55626655e-01 +1.21382132e-01 +1.64178610e-01 +9.67100859e-02 +7.46975243e-02 +1.35708481e-01 +2.09434964e-02 -3.33341479e-01 +1.41115427e-01 +1.14118934e-01 +2.08495595e-02 +7.17962757e-02 +9.84148383e-02 +1.89427361e-01 +9.46658254e-02 -5.02385490e-04 +3.08501385e-02 -2.85825342e-01 -1.43977374e-01 +5.30707352e-02 +9.71191674e-02 -5.56294620e-01 +1.44782048e-02 -3.70730609e-01 -7.98814893e-02 -6.96738362e-02 -9.86269768e-03 -1.15113780e-01 +2.40974943e-03 +1.93740390e-02 -2.25301206e-01 +2.67381351e-02 -2.95184582e-01 -1.30966276e-01 -1.39814571e-01 +8.76171980e-03 -5.08990474e-02 -4.97056544e-02 -1.47269249e-01 +1.38920963e-01 +2.36669123e-01 -2.78914720e-01 -3.08900088e-01 +9.99793783e-02 -7.40345791e-02 +8.62999111e-02 -6.88399896e-02 -2.46601552e-01 +8.83475179e-04 -9.29094329e-02 +2.80964319e-02 +9.89935622e-02 +3.44073921e-02 +7.90231749e-02 +2.35252813e-01 -2.15656698e-01 +5.89326061e-02 -3.04919351e-02 -1.14296690e-01 -1.46364242e-01 -3.60440388e-02 +2.41254151e-01 -3.69357139e-01 +1.99297264e-01 +8.67093280e-02 +2.16580123e-01 +1.86641112e-01 +3.22935402e-01 +1.12376526e-01 -5.49988225e-02 -1.41573310e-01 +1.81379661e-01 +1.19128980e-01 -1.67914834e-02 +2.25619017e-03 -5.00306666e-01 -1.21384054e-01 +2.34156430e-01 -4.89987666e-03 -6.35513961e-02 +3.74328345e-01 -4.77755666e-01 +1.04365408e-01 -1.19351320e-01 +2.66926467e-01 +8.37335736e-02 -1.08787194e-01 -2.19909493e-02 +1.49226278e-01 -8.16560932e-04 +1.74000787e-04 -5.41959144e-02 +3.08680963e-02 +1.62828669e-01 -2.43239313e-01 -2.38123447e-01 +4.20256443e-02 +5.26921190e-02 -7.63642490e-02 -3.38272393e-01 +8.03680718e-03 -1.57942861e-01 -3.69013816e-01 -2.46739928e-02 +1.89944789e-01 -3.74582291e-01 -7.35636294e-01 -3.13017555e-02 -6.01988137e-01 +4.86007690e-01 -3.45486462e-01 +1.55635532e-02 +2.38497347e-01 -7.36249462e-02 +7.64784217e-01 +4.80245113e-01 -3.59251708e-01 +6.58219576e-01 +2.34279856e-02 +4.47958291e-01 +4.78076376e-02 -7.65366852e-02 -1.43730402e-01 +3.53856534e-01 +3.26311201e-01 +1.50785834e-01 +7.19487011e-01 -4.82475072e-01 +4.16614413e-01 +1.80699840e-01 -1.28919810e-01 +1.85063273e-01 +7.58572340e-01 -1.91088822e-02 +5.67044377e-01 -4.43389982e-01 +4.64908421e-01 -1.26991823e-01 +6.84721410e-01 +7.42276430e-01 -7.23584533e-01 +6.00557685e-01 -3.19509596e-01 +4.21972424e-01 -3.45674038e-01 +3.24519455e-01 -2.08828494e-01 -3.16472262e-01 -6.02955595e-02 -5.76319575e-01 +1.02811977e-01 -7.86023378e-01 -2.29310080e-01 -2.12550297e-01 -2.23866299e-01 -1.15245432e-01 +4.57834691e-01 +3.38578373e-01 -8.39038432e-01 -6.98168218e-01 +3.79832834e-01 +2.13824749e-01 -1.06992401e-01 -8.46157968e-01 +7.72628605e-01 
#Parameter# /vanilla-lstm-builder/_1 {256,64} 262145 ZERO_GRAD
-1.07634209e-01 -1.51221305e-01 -1.42632499e-01 +1.07039668e-01 -1.36061043e-01 +1.11532118e-02 -1.75316364e-01 +3.71471979e-02 -8.39495808e-02 -1.70008495e-01 -2.00287059e-01 +7.56830424e-02 +4.16212119e-02 -4.49246839e-02 +1.02385938e-01 -7.67047778e-02 -5.98414652e-02 -1.53159365e-01 +4.17230092e-02 -1.16672620e-01 +4.05415939e-03 +4.07391563e-02 -3.00997162e-05 -1.86312050e-02 -5.02128638e-02 -1.59844942e-02 -7.37324283e-02 -1.16337240e-01 -7.61682633e-03 -8.53022859e-02 +3.88905555e-02 -5.70787080e-02 -1.60554554e-02 +9.25800726e-02 -6.02481067e-02 -7.73525834e-02 -9.96359289e-02 -1.36413246e-01 -8.97813812e-02 -4.53704074e-02 +1.18394047e-01 +7.01084882e-02 -1.65665999e-01 -8.01240355e-02 -3.23578790e-02 -1.18581139e-01 -8.89595672e-02 +8.06323960e-02 -9.34248697e-03 +7.75145413e-03 -9.10357106e-03 -1.33359820e-01 -4.11023665e-03 -1.44332871e-01 +9.31852385e-02 -1.32932901e-01 +1.13493934e-01 -3.99884628e-03 +1.08093791e-01 -1.90477163e-01 -1.95141509e-02 +1.62257385e-02 +3.23415101e-02 -3.68003733e-02 +7.89350867e-02 -5.03953323e-02 +1.08833142e-01 +1.77701846e-01 +1.33949116e-01 +1.11480147e-01 +4.52071577e-02 +1.18967533e-01 +5.75694516e-02 +1.29477799e-01 +6.55870512e-02 -5.81461564e-03 +1.75112262e-01 +3.72574255e-02 -3.62534396e-04 -6.15705224e-03 -4.59992737e-02 +3.12521271e-02 +7.23077580e-02 -1.14541568e-01 +5.27869239e-02 +6.18705079e-02 +1.72548071e-01 +1.30194560e-01 +7.02356845e-02 +6.52632937e-02 -1.34551883e-01 +2.95008402e-02 -4.60490957e-02 -9.25537851e-03 -6.92739757e-03 +8.87660757e-02 +5.45282364e-02 -1.17314100e-01 -2.80979406e-02 +3.92707251e-02 -5.69531024e-02 +1.47876173e-01 -1.09096706e-01 -1.98161863e-02 +1.15453377e-01 +1.86474025e-01 +7.05442252e-03 +1.07228339e-01 +3.04813962e-03 -1.58241577e-03 +8.49962384e-02 -1.16320752e-01 +7.54786879e-02 +8.20045471e-02 +1.51305452e-01 +1.16084717e-01 +9.84831303e-02 +6.80285646e-03 +5.79227544e-02 +6.51130080e-02 -1.02933906e-01 -6.05227239e-02 +1.27107844e-01 +1.26003325e-01 +6.92033991e-02 +1.01040266e-01 +1.38408899e-01 +5.21338508e-02 -8.73167962e-02 -1.47285968e-01 +1.06922865e-01 +1.16839558e-01 +8.69717672e-02 -1.00042569e-02 -8.95106494e-02 -1.12180367e-01 +7.59328455e-02 -1.58014521e-01 -3.45585607e-02 -2.30823271e-02 +4.17461060e-02 +2.99550667e-02 +4.12171148e-03 -5.07868640e-02 +7.82886520e-03 -1.13786265e-01 +4.52846363e-02 -5.19528873e-02 +3.29707153e-02 +2.85433903e-02 -6.25784770e-02 +1.63067043e-01 +9.60444212e-02 +2.14633830e-02 +1.58598144e-02 +6.26788959e-02 -1.09297715e-01 -3.82672250e-02 -1.18001692e-01 +3.33542749e-03 -6.24165721e-02 -6.30934015e-02 -1.85122088e-01 +5.72004542e-02 -1.86137602e-01 -9.72482488e-02 +1.33775443e-01 +1.93642095e-01 -1.02323117e-02 +9.65398829e-03 -1.38268262e-01 +1.31299034e-01 -1.97618529e-01 +9.43767652e-02 -8.12597871e-02 -2.29953513e-01 -2.11331788e-02 -6.30007684e-02 +3.32009816e-03 -5.85610382e-02 +2.69317571e-02 -1.19068369e-01 +8.11085626e-02 +8.70915279e-02 +8.59131757e-03 -1.31184459e-01 -5.43545485e-02 +6.74925297e-02 -1.21674687e-01 -1.56568274e-01 -2.88967658e-02 +5.29678799e-02 -6.34546131e-02 +7.65679553e-02 -6.07145950e-02 +1.74658507e-01 +1.96245879e-01 +6.50482550e-02 -4.38603237e-02 +3.00128590e-02 +1.27021119e-01 +1.60823837e-02 +1.92065649e-02 +8.90321359e-02 +9.82428864e-02 +8.91021341e-02 +6.83833659e-02 -3.30524556e-02 -7.48097450e-02 +1.08751565e-01 +1.26455752e-02 +1.95084721e-01 -4.35025953e-02 -1.34525985e-01 -1.14844263e-01 +1.89697612e-02 +4.24212776e-02 -1.43176854e-01 -4.64640036e-02 +6.70307875e-02 +1.68690130e-01 +2.51180585e-02 +8.16007778e-02 -1.41863778e-01 +2.27598697e-02 +1.78893954e-02 -1.35797933e-01 -9.47997048e-02 +5.78535907e-02 -7.43415654e-02 -3.91412852e-03 +7.15869293e-02 -1.00546755e-01 +1.51389107e-01 -1.19633064e-01 -3.18614184e-03 -1.16245866e-01 -5.50911948e-03 +9.55739096e-02 +1.81425344e-02 +4.57303375e-02 +1.27508780e-02 -1.27836958e-01 -1.84849743e-02 +1.81506798e-02 +1.23959228e-01 +1.50652543e-01 -1.73077863e-02 -1.87385976e-01 +8.79756808e-02 +3.22853401e-02 +7.90098533e-02 -2.99737081e-02 +2.91077718e-02 +5.32776974e-02 -3.53906825e-02 -1.50623038e-01 -9.63653699e-02 +7.34332055e-02 -5.20597026e-03 -1.35108694e-01 -6.71409965e-02 -3.86666767e-02 -1.29845172e-01 -5.87039329e-02 -3.89956050e-02 -1.09839654e-02 +5.00482358e-02 +9.36715826e-02 -1.98218673e-02 -2.87960675e-02 +7.23782405e-02 +1.15034003e-02 +4.96237688e-02 -2.20799461e-01 -9.88560915e-02 -1.93215571e-02 -2.63962857e-02 +4.28651161e-02 -1.84119754e-02 +8.48624185e-02 -3.94338220e-02 -9.53876153e-02 +6.31350130e-02 +6.93228692e-02 +8.51416215e-02 -2.66034100e-02 -1.02722729e-02 -1.29060065e-02 +1.25384256e-02 +6.83159679e-02 +8.60035717e-02 -1.64148077e-01 -1.01480022e-01 -1.24126546e-01 +5.96403666e-02 +7.64735555e-03 -1.74801305e-01 -1.05980605e-01 +7.92526379e-02 -1.64874401e-02 +1.41692057e-01 +2.45370995e-02 +4.04913686e-02 -9.72016752e-02 -8.26963857e-02 -9.54278335e-02 -6.94663674e-02 +9.04290825e-02 +1.42290373e-03 -7.60848522e-02 -3.97390760e-02 -1.20679848e-02 +1.43309040e-02 -1.54681867e-02 -8.44401121e-02 -1.35812163e-01 -1.35145128e-01 -1.85428888e-01 -1.70201749e-01 -9.69508365e-02 -4.95038852e-02 -2.54860874e-02 -5.93159162e-02 -1.90670490e-02 +6.94501325e-02 -6.08704344e-04 +3.01605389e-02 +1.21773720e-01 +3.24415565e-02 -8.07915851e-02 -8.17726627e-02 +5.85630611e-02 +3.06384284e-02 +8.80855545e-02 +1.15921602e-01 -1.88510254e-01 -5.98861724e-02 +1.60705075e-02 +1.33075222e-01 +7.49638677e-02 -8.58925581e-02 -5.24122007e-02 +1.38437953e-02 +5.62885515e-02 -1.11715980e-01 -6.74900636e-02 +1.17009372e-01 +2.26639267e-02 +5.61004281e-02 -6.00912571e-02 -3.35992165e-02 -4.76515181e-02 +3.19699124e-02 -5.25342003e-02 +3.94835845e-02 -5.71527332e-02 +1.09880224e-01 -1.09005846e-01 +1.30023405e-01 +1.19841933e-01 -2.26939265e-02 -1.06953541e-02 -1.18954636e-01 -5.25731444e-02 +7.34940395e-02 +7.44592100e-02 +9.55672876e-04 -2.96911001e-02 -2.97879726e-02 +9.54730064e-02 +5.35243005e-02 -1.92326605e-02 -4.55908403e-02 -1.28114298e-01 -8.37775916e-02 -4.69387546e-02 -3.38533334e-02 -1.06111348e-01 +1.61648467e-01 +2.61585824e-02 -9.16988701e-02 -1.30468100e-01 +7.53598437e-02 +4.87856902e-02 -2.10569203e-01 -1.80245191e-01 -2.11099181e-02 -1.80481017e-01 -4.32802252e-02 -1.99781507e-02 -9.61878896e-03 -1.09771833e-01 -2.00215746e-02 -2.11775005e-02 +9.55472607e-03 +8.03268049e-03 -4.73512225e-02 -8.89735967e-02 +2.17847582e-02 -1.36582330e-01 +5.80926836e-02 -5.55932634e-02 -4.77500893e-02 -3.03528495e-02 +6.61593489e-03 -8.66908953e-02 -1.03084994e-02 -3.42181064e-02 -2.56531388e-01 +6.29908741e-02 +2.73908321e-02 -3.99893196e-03 -1.31526470e-01 -1.69716910e-01 -1.04373276e-01 -1.92958146e-01 -1.25632912e-01 -1.03993103e-01 -5.14037833e-02 -2.32547559e-02 +6.18717670e-02 -5.42028360e-02 +1.20118842e-01 +1.82908829e-02 -1.24139346e-01 +1.33943735e-02 -1.63053915e-01 +1.39598558e-02 +1.09075561e-01 -8.54790676e-03 +3.38990018e-02 -1.33832738e-01 -2.86820214e-02 +1.36257395e-01 -5.10610081e-02 -3.99453454e-02 -1.21522643e-01 -1.65610433e-01 -3.93886045e-02 +4.14205305e-02 -1.53426170e-01 +2.19260883e-02 -2.94167232e-02 +2.02260576e-02 -8.13120529e-02 -1.88061640e-01 -1.45862252e-02 -1.66039079e-01 +1.16251722e-01 +1.57095581e-01 -9.63667184e-02 -1.09752202e-02 -9.49751586e-02 -5.59061617e-02 +2.05976099e-01 +1.61214396e-02 +5.53120114e-02 -6.57253116e-02 +2.35269684e-02 +4.21494730e-02 +1.80915102e-01 -2.01869160e-01 -2.41935074e-01 +7.75128556e-03 +6.61183670e-02 +3.86833353e-03 -2.83451770e-02 -1.61439985e-01 +1.40074506e-01 +5.56184426e-02 +2.36230139e-02 +3.60315442e-02 -2.15719119e-01 -2.36094788e-01 +6.34145588e-02 +5.14648743e-02 -1.85918629e-01 +2.25150317e-01 -5.73962294e-02 +2.01572284e-01 -3.37947048e-02 -1.41244773e-02 -1.03482984e-01 -1.51941687e-01 +2.26729605e-02 -1.96175963e-01 +4.00976129e-02 +1.12896644e-01 +7.08245952e-03 -1.76263198e-01 -1.74371541e-01 +1.53116122e-01 -6.88654408e-02 +7.53810927e-02 -3.67186894e-03 -7.81191438e-02 +4.57578823e-02 -5.27047925e-02 +6.99463710e-02 +3.29282843e-02 -6.69357702e-02 +1.74194276e-01 -1.69134244e-01 +2.92125121e-02 -1.11767069e-01 -3.30511183e-02 +1.35266468e-01 +3.03837489e-02 -1.04444772e-01 +1.45759165e-01 -1.00253485e-01 -1.83061868e-01 +7.06661716e-02 +6.44032806e-02 -1.12852659e-02 -1.66717052e-01 -1.29108891e-01 +7.62974024e-02 -5.92095703e-02 -5.81314117e-02 -1.31078601e-01 -1.41147360e-01 -5.48125617e-02 -9.01459157e-02 +8.94511491e-03 -9.77127403e-02 -3.02231330e-02 +2.87496820e-02 -7.38572106e-02 -7.75295720e-02 +3.60213779e-02 -1.21686593e-01 -2.88733002e-02 +7.88281485e-03 -1.75211936e-01 +8.29716250e-02 -6.36900291e-02 +5.94024844e-02 -1.55413598e-01 +3.68858641e-03 -1.04988523e-01 -4.11858782e-02 +8.42884183e-02 -1.22835850e-02 -1.46038219e-01 +1.04167387e-01 -3.24232429e-02 -7.03791901e-02 -3.83199565e-02 -5.39508164e-02 -1.64169595e-01 +8.34938362e-02 +3.38048860e-02 -4.67014499e-02 -4.37189266e-02 -1.31859645e-01 -6.71473220e-02 -3.33475247e-02 -7.65514374e-02 -8.36924091e-02 -1.12584919e-01 +3.55823599e-02 +1.41095454e-02 +6.87126219e-02 +3.81002836e-02 -1.59044683e-01 -8.62892121e-02 -1.24923438e-01 +6.75643459e-02 -6.69036061e-02 -1.25955209e-01 +9.64007452e-02 -5.18601090e-02 -1.30514517e-01 -2.41206124e-01 -1.40472809e-02 -2.76964735e-02 +8.65694731e-02 +8.67457762e-02 +1.65062606e-01 -2.90692635e-02 -7.19790012e-02 +2.71511767e-02 +3.72647960e-03 +3.46190520e-02 +6.16503730e-02 -1.02480285e-01 -5.68834096e-02 +3.76167074e-02 -4.08974104e-02 +5.63852340e-02 -3.14779840e-02 -5.52947260e-03 +1.73360825e-01 -1.26614287e-01 -7.51783177e-02 -1.31872669e-01 +9.78697836e-02 -5.92513978e-02 +1.75868031e-02 -3.02381702e-02 -1.31068870e-01 -1.37385935e-01 +7.08093569e-02 +1.15869725e-02 +2.42499765e-02 -3.93371191e-03 -1.52125835e-01 +3.83032002e-02 +2.89339665e-02 +5.43201854e-03 +9.66008529e-02 -8.02204683e-02 -2.82344292e-03 +1.22749666e-02 -1.17576115e-01 +4.81800213e-02 +5.32236733e-02 +8.49169567e-02 +1.42316028e-01 +3.49981189e-02 +1.11519620e-01 +6.14586174e-02 +2.05595065e-02 +5.05030900e-02 +1.13741636e-01 -6.25885203e-02 -1.03850123e-02 +3.84038389e-02 -1.36524156e-01 -6.27416521e-02 -2.37759259e-02 -1.36176888e-02 +1.05535425e-01 -3.50286067e-02 +8.54931772e-02 -1.00982614e-01 -2.96088997e-02 -5.71071990e-02 +2.23586503e-02 -1.04628019e-01 +4.86285128e-02 -1.56382486e-01 -1.79350540e-01 -5.00845350e-02 -2.63915360e-01 -1.79402754e-01 -3.26250750e-03 -2.08865941e-01 +5.16411103e-02 +1.22177362e-01 +2.67635845e-02 -1.09328315e-01 +7.70267695e-02 -1.66333854e-01 -1.91736698e-01 -2.48508342e-02 -3.23934220e-02 -1.00360587e-02 -1.11029543e-01 -5.89530133e-02 -1.23156086e-01 +9.30178836e-02 +2.95574442e-02 -2.13156745e-01 -2.66763307e-02 -6.51631504e-02 -4.47199941e-02 -5.16824536e-02 -1.85377434e-01 -2.64587849e-02 -2.45445043e-01 -4.74419557e-02 -7.00111613e-02 +3.73833906e-03 -7.87076131e-02 -6.45938516e-02 +3.79586816e-02 -7.81648234e-02 +6.16907887e-03 -1.10848501e-01 +3.84211428e-02 -9.24343392e-02 -1.40134573e-01 -1.10186815e-01 -1.35063738e-01 -7.75803626e-02 -1.48170039e-01 +8.79893154e-02 -2.80072447e-02 -1.71653226e-01 -4.73964103e-02 +5.10752387e-02 -1.75427645e-01 -1.04715712e-01 -8.67834128e-03 +4.91463579e-02 +1.29117310e-01 +7.61924759e-02 +1.22013979e-01 -6.42929003e-02 -2.14292124e-01 -9.04024690e-02 +1.29883602e-01 +1.59151748e-01 -2.86266506e-02 +1.65090799e-01 +3.95687595e-02 +8.21810663e-02 -1.68969274e-01 +4.79642674e-02 +5.24213426e-02 +1.02486804e-01 -1.62345972e-02 +8.25610384e-02 -7.96315819e-02 +1.55139878e-01 -1.12453803e-01 -4.80825603e-02 -1.65699646e-01 +5.96139841e-02 -7.77481943e-02 +7.95638412e-02 -5.76077327e-02 +1.75210118e-01 -1.22466469e-02 +8.73980392e-03 +1.47093058e-01 +6.52042544e-03 -2.57930815e-01 +6.79569095e-02 +7.44727626e-02 -1.37809500e-01 +1.88147962e-01 -1.14271991e-01 +1.28001338e-02 -5.05114868e-02 -3.37532256e-03 -2.13925168e-01 -9.52372029e-02 -5.47604971e-02 -2.01850608e-01 +7.16603026e-02 +7.67972246e-02 -5.43097109e-02 -1.25168636e-01 -1.62540209e-02 +3.26593257e-02 -1.67433266e-02 -2.80654412e-02 -2.44740117e-02 +1.15884596e-03 -4.92172092e-02 +3.50453965e-02 +2.19013393e-01 +1.09576710e-01 +3.10536399e-02 +1.53884321e-01 -9.53885913e-02 +4.14889045e-02 +3.28222029e-02 +3.05287652e-02 +3.27383801e-02 +4.80842683e-03 +1.38719128e-02 +2.58489579e-01 -2.18059998e-02 -1.37749165e-01 +7.48425350e-02 -1.27919763e-01 +4.06297743e-02 -1.65968072e-02 +1.07179627e-01 -3.64044756e-02 -8.51074159e-02 +1.10816836e-01 -1.78142890e-01 -4.40866593e-03 +1.06967956e-01 -2.73508243e-02 -8.31776783e-02 +3.61067317e-02 -6.73011541e-02 +7.14992881e-02 -5.90097494e-02 +8.36414378e-03 +6.52573630e-02 +1.08648188e-01 +1.77325159e-02 +8.95361677e-02 +7.98870251e-02 -1.80513188e-01 -8.08690861e-02 +1.82142496e-01 +5.58344275e-02 +5.70944585e-02 -1.14193529e-01 -2.70330198e-02 +8.71893689e-02 -4.53185625e-02 +1.21842109e-01 +9.51343030e-02 -4.06822516e-03 +8.03975612e-02 -4.86329570e-02 -2.92295981e-02 +1.56849295e-01 +2.66307425e-02 +9.72963721e-02 -4.13804166e-02 -9.96687710e-02 +3.90795554e-04 -1.54847074e-02 +6.80442676e-02 -2.98620444e-02 -1.32347852e-01 -7.22249001e-02 +5.69272079e-02 -1.29088573e-03 +3.18227597e-02 +1.34795038e-02 +1.03170075e-01 -7.04368353e-02 +7.26955850e-03 -7.23686814e-02 +5.58158755e-02 -2.53071003e-02 +1.13983244e-01 +5.56661421e-03 +8.53091702e-02 +1.01206914e-01 +2.67883111e-02 +5.99816144e-02 +3.78352739e-02 -1.07687570e-01 +1.39604226e-01 -4.85582463e-02 +4.13134089e-03 +5.29702716e-02 -8.06693062e-02 +1.17645629e-01 -9.73244905e-02 -6.94741607e-02 -7.89284557e-02 -1.04130268e-01 -2.01717000e-02 -9.26789865e-02 -7.37740323e-02 -2.32077055e-02 +1.52637184e-01 -1.10119388e-01 -1.84074584e-02 -9.23095345e-02 -1.20692424e-01 -8.01468790e-02 -6.65533543e-02 +3.69537510e-02 +9.75901112e-02 -2.76513435e-02 -8.19167718e-02 -1.74750816e-02 +1.13395996e-01 -1.31437264e-04 -5.67887351e-02 +5.60246259e-02 -1.22029878e-01 -8.27366486e-02 -3.11757009e-02 -5.29561862e-02 +6.48007691e-02 +1.01784855e-01 -6.18830621e-02 -9.75874737e-02 -7.12054549e-03 +6.50297850e-02 +2.74296179e-02 -2.55607646e-02 -2.73645166e-02 -1.32820427e-01 +1.31724194e-01 +2.90031452e-02 -1.31560490e-02 -9.83599648e-02 +1.33019090e-01 -1.17863424e-01 -6.00057989e-02 +8.44101831e-02 +1.07521422e-01 -5.72802275e-02 -8.53508860e-02 +2.04996169e-02 -5.56247681e-02 -3.50155048e-02 +9.70411580e-04 +1.76175281e-01 +7.89477378e-02 -1.29134610e-01 +3.58394831e-02 -3.65864323e-03 -5.02993390e-02 +9.61439982e-02 +6.14523590e-02 -1.11502632e-01 -9.10975784e-02 -5.45509495e-02 -3.49430889e-02 -9.70628392e-03 -5.60012124e-02 +1.13923326e-02 +5.74153662e-02 +4.18130308e-02 -1.00904353e-01 -4.02631313e-02 +6.11719489e-02 +5.26446849e-02 +1.38729006e-01 -6.96728528e-02 -3.17415260e-02 -4.42646593e-02 -8.05666149e-02 +1.04577653e-01 +2.11945493e-02 -1.02820694e-01 -1.20860850e-02 -1.28849462e-01 -5.29675595e-02 +1.30865693e-01 +5.18006049e-02 -1.10559072e-02 -1.23779349e-01 -8.11944306e-02 +7.36529157e-02 +5.51641844e-02 +1.93171859e-01 +8.58945027e-02 +1.14032902e-01 +1.29031613e-01 +5.10617159e-02 +7.52772167e-02 -1.03426218e-01 +1.23443179e-01 +8.27792659e-02 -1.05757028e-01 +1.14026986e-01 +1.40642421e-02 +1.66194364e-01 -6.67318255e-02 +7.09035024e-02 -1.09792678e-02 -5.02756834e-02 +1.59760788e-01 +1.00904964e-01 -1.26104996e-01 +8.64632502e-02 +2.38860445e-03 -1.61310121e-01 -1.11503355e-01 +1.18362054e-01 +8.53046626e-02 -8.30163658e-02 +1.31665950e-03 +2.16622911e-02 +2.04342399e-02 -2.17187017e-01 -1.32603481e-01 -1.16892867e-02 +1.09890126e-01 -2.16341335e-02 -1.88608155e-01 +6.11828603e-02 -1.88012078e-01 +1.79611176e-01 -2.45516405e-01 +3.36828339e-03 +8.78598541e-02 -8.37974716e-03 -1.05274342e-01 +1.59828424e-01 -3.26364897e-02 -9.88037214e-02 -1.63135957e-02 -2.33942986e-01 +5.30707054e-02 -5.08357538e-03 +4.83641727e-03 +1.63555562e-01 +9.33339819e-02 -7.83782732e-03 +4.07253504e-02 +1.22248545e-01 -7.40345865e-02 +7.28219002e-02 +1.25533670e-01 +2.12714419e-01 +1.72991753e-02 +8.67534131e-02 -2.19261035e-01 -8.98194090e-02 +1.81652438e-02 +9.13576856e-02 +1.18017487e-01 +8.27482566e-02 -2.00955033e-01 -1.25162065e-01 -1.00208849e-01 -2.30720952e-01 -1.06393158e-01 -2.10731849e-01 +8.51334035e-02 +6.20773137e-02 +6.28116429e-02 -1.97786808e-01 +1.65754527e-01 +2.15846021e-02 -1.18430592e-01 +7.27221668e-02 +2.21758500e-01 -2.76826527e-02 +1.36893973e-01 -1.85550988e-01 -6.99179024e-02 +7.07902014e-02 +1.62315592e-01 -1.29105985e-01 +4.03737798e-02 -1.05681300e-01 +7.38172457e-02 +7.73501396e-02 +2.17853822e-02 -1.34781539e-01 -1.11574642e-01 +4.25442606e-02 -8.41774195e-02 +8.02787915e-02 -5.19728437e-02 +8.42121914e-02 -4.88216728e-02 +5.37802503e-02 -5.46821095e-02 +7.80300722e-02 -3.62705700e-02 +9.20186862e-02 +3.74513008e-02 +8.28539431e-02 -4.61583808e-02 +1.35006115e-01 -5.89862354e-02 -4.30031354e-03 -3.87360603e-02 +8.35010037e-02 -2.50962023e-02 -6.42262283e-04 -1.21233882e-02 +2.78506204e-02 -3.73722538e-02 +1.22430203e-02 -1.12443388e-01 +1.44047923e-02 +7.62633607e-02 +1.30137414e-01 -7.87926614e-02 +5.08415624e-02 +7.86645859e-02 -4.25814055e-02 -8.95956308e-02 +1.11428089e-01 -1.25552386e-01 -1.62309855e-01 +3.73641029e-02 +1.32168159e-01 -1.31840899e-03 -8.46979767e-02 -1.10310473e-01 -1.16060063e-01 +3.90751921e-02 -1.19504817e-01 +4.43437397e-02 -6.23670705e-02 -1.40257090e-01 +2.49153487e-02 -1.41144693e-01 -1.31536275e-01 -4.00711503e-03 -2.83760633e-02 +1.04999002e-02 -8.57408866e-02 -1.58544239e-02 +7.12626651e-02 +9.98137742e-02 -6.19964637e-02 -4.93132994e-02 -8.68894979e-02 +9.31534320e-02 -5.39404973e-02 -5.70772365e-02 +2.54404023e-02 -9.60540026e-02 +7.15785921e-02 +3.02599911e-02 +7.47108534e-02 -4.56190892e-02 -1.09698325e-02 -1.60718728e-02 -7.11324215e-02 +8.44474975e-03 +7.77786225e-02 -7.93934539e-02 -1.09782003e-01 +3.03862728e-02 +9.08230245e-02 -1.64110286e-04 +1.00206465e-01 -2.43773460e-02 +1.14917494e-02 +7.87851810e-02 -7.04962313e-02 +9.92523059e-02 -7.30393529e-02 -1.39206827e-01 -2.01926902e-02 +2.02217437e-02 -5.31188771e-02 -5.63986935e-02 -1.20238453e-01 +4.74580564e-02 -1.58022474e-02 -1.32995442e-01 +2.53775641e-02 -1.34836540e-01 +5.89444228e-02 +3.59862261e-02 +1.20921738e-01 +6.92159012e-02 -3.64994705e-02 +3.81577797e-02 +6.81673437e-02 +4.50815111e-02 +8.17534253e-02 +7.49376342e-02 +3.80860604e-02 +4.04058844e-02 -1.08621277e-01 +6.77194819e-02 +9.75740701e-02 +1.32924050e-01 +1.24777511e-01 -3.97197977e-02 +1.54586155e-02 +1.14207966e-02 -2.63209213e-02 -1.43056333e-01 -3.87339033e-02 -6.02764003e-02 -5.38247218e-03 +1.16758354e-01 -7.07001686e-02 -9.55758393e-02 +9.26102772e-02 -1.46591626e-02 -6.88665593e-03 -1.27965480e-01 -1.70046184e-02 +1.19145706e-01 -1.03028335e-01 -1.12021267e-01 -6.68713227e-02 -1.19398452e-01 +9.17689055e-02 +1.40041457e-02 +6.81477338e-02 -8.99798870e-02 +7.86517411e-02 +1.02576017e-01 -8.52973536e-02 +1.18014269e-01 +4.64658476e-02 -1.86366186e-01 -1.37592079e-02 +7.92304799e-02 -1.16263121e-01 +4.89577986e-02 +2.64189430e-02 -1.22744087e-02 +4.11998071e-02 -7.77649730e-02 +3.94850923e-03 -1.16622947e-01 -6.37472495e-02 +1.70281045e-02 -8.12507793e-02 +8.00429191e-03 +4.07166444e-02 -1.58182830e-01 -1.65710658e-01 +1.43130021e-02 +2.90427264e-02 -1.33993760e-01 -5.72046600e-02 +1.11922450e-01 -8.00062343e-02 +1.05122678e-01 +1.28197268e-01 -6.50923327e-02 +8.56285095e-02 +1.21055558e-01 -8.16331878e-02 -2.25685358e-01 +6.38178587e-02 -1.23199597e-01 +1.33318901e-01 -1.04133621e-01 -1.26909748e-01 +6.46826625e-02 -1.16699457e-01 -6.75126119e-03 -1.63913369e-01 +1.51223573e-03 -9.47564170e-02 -1.67674571e-02 +3.60536277e-02 +2.40272842e-02 +6.20526485e-02 +6.17765300e-02 +9.37039182e-02 -1.21757455e-01 +2.11670205e-01 -4.70227264e-02 +3.84239778e-02 -6.30114749e-02 -3.57942277e-04 +5.03463075e-02 +1.21980965e-01 +7.52847865e-02 +8.74069780e-02 -1.38334453e-01 -1.55781895e-01 +1.65540904e-01 -2.18646824e-02 -3.66792679e-02 +9.19874683e-02 +4.30396758e-02 +5.14919795e-02 -1.22863114e-01 +3.23327556e-02 -6.26397431e-02 -2.80935522e-02 +1.23729728e-01 +1.34217128e-01 -5.58340363e-02 +4.66112643e-02 -2.62827035e-02 -9.62481946e-02 +1.43900514e-01 -6.41838238e-02 -3.21438722e-02 -1.61518399e-02 -1.60420850e-01 -1.57123443e-03 +3.05077638e-02 -3.42409089e-02 +4.38309014e-02 +6.04286790e-02 -2.89323125e-02 +1.20582106e-02 +8.13950449e-02 -2.67166942e-02 +1.56133041e-01 -8.13195184e-02 -1.20034210e-01 -2.99507026e-02 -1.05641522e-01 +9.77333635e-02 +2.04482339e-02 -1.29908502e-01 -3.37235699e-03 +3.28527093e-02 +1.70382913e-02 +3.34778987e-02 +9.36284736e-02 +8.24318007e-02 -9.80151072e-03 -5.86033203e-02 +1.92194238e-01 -1.07816258e-03 +7.02790394e-02 -4.41901721e-02 +1.18209489e-01 +7.11176470e-02 +9.95093733e-02 -9.49610919e-02 +7.69113079e-02 +7.01203849e-03 +8.08814988e-02 +1.44930735e-01 -1.06562510e-01 +1.54990390e-01 -3.71631160e-02 -7.04150796e-02 -4.41007614e-02 -5.34166060e-02 +8.51729512e-02 +1.74338251e-01 +1.52139887e-01 -1.03534713e-01 -7.73212984e-02 +1.05851039e-01 +9.02370363e-02 +6.91213682e-02 -1.16874963e-01 -6.40474772e-03 -3.15133133e-03 +7.40456060e-02 -8.52931291e-02 +1.23463601e-01 -1.16665754e-02 +7.04018623e-02 +1.64672267e-02 +4.77565937e-02 +1.79336786e-01 +2.41489373e-02 +3.56510468e-02 -5.96182719e-02 +3.27038057e-02 +1.19950898e-01 -1.46199726e-02 -7.80733079e-02 +7.43953735e-02 +2.29954552e-02 +1.85033225e-03 +1.13222674e-01 +7.52805173e-02 +9.27693024e-02 +2.21974719e-02 -1.87018476e-02 -2.50434428e-02 +3.06789465e-02 +1.13142282e-01 +9.24234390e-02 +7.29058385e-02 -7.34881908e-02 +4.39083278e-02 -1.93369985e-02 +1.92581728e-01 +2.57197078e-02 +5.30300811e-02 +1.18980274e-01 -1.18086800e-01 -2.29336321e-01 +1.78285618e-03 -2.77555678e-02 +6.78359419e-02 +1.61222637e-01 +3.25236619e-02 -2.23528445e-02 -4.07965481e-03 -1.44246966e-01 +1.42714962e-01 -3.00757084e-02 -1.45479357e-02 -1.28374826e-02 +3.31263267e-03 -2.59781280e-03 +1.03126042e-01 -1.47553638e-01 -5.33102602e-02 -1.55196503e-01 +9.15306732e-02 +1.04936324e-01 +6.56564683e-02 -1.00871526e-01 -4.17923853e-02 +7.74850100e-02 -1.30527958e-01 +1.09059185e-01 -1.73546642e-01 +1.36075601e-01 +2.71507520e-02 -9.25616547e-02 -9.46461856e-02 +3.53019834e-02 -1.26611581e-02 -4.07008566e-02 -1.45213529e-01 -1.03155166e-01 -8.56173411e-02 +6.75434470e-02 -9.72337201e-02 +2.18339339e-02 +1.05062321e-01 -8.85269940e-02 -6.79369867e-02 +8.09560418e-02 -2.30685901e-02 -9.75792184e-02 -7.46433362e-02 -2.40674987e-02 -1.58785861e-02 -1.10136859e-01 +5.95241261e-04 -7.40826502e-02 -1.20150000e-01 +1.64581127e-02 -5.00299856e-02 +3.38453427e-02 -1.72103390e-01 -2.92888423e-03 -1.60898678e-02 +1.15130864e-01 +7.68297911e-02 +7.73183331e-02 +3.82878929e-02 -7.30450898e-02 -8.41665715e-02 +1.52594835e-01 -1.55229047e-01 +1.13908105e-01 +5.78502342e-02 -1.31396160e-01 -5.60029550e-03 -1.03460379e-01 +1.19942136e-03 +8.93455744e-02 +1.12735547e-01 +9.95129421e-02 +1.09425589e-01 +1.11826487e-01 -8.78269449e-02 -9.29040555e-03 +6.78969547e-02 -5.29221073e-02 +8.64059925e-02 +9.69260111e-02 +3.73313650e-02 +2.29460180e-01 -1.33790318e-02 -1.08735271e-01 -1.05789989e-01 +1.33180797e-01 -1.20257057e-01 +6.52121678e-02 -8.34211037e-02 +8.26042071e-02 -1.06566899e-01 +9.15013552e-02 +1.04417428e-02 -1.40976682e-01 +1.19269304e-01 +1.64177954e-01 -6.69565871e-02 +1.84410792e-02 +6.02462254e-02 +6.77980570e-05 +3.66491675e-02 +2.77081057e-02 +3.61175463e-02 -1.20050654e-01 -1.22122794e-01 +1.37957782e-01 -5.86029515e-02 -7.18952864e-02 +7.97434077e-02 +8.07338804e-02 -1.79896683e-01 -7.12615624e-02 +2.48530880e-02 +1.25164375e-01 +4.46118936e-02 +8.20838809e-02 +1.17817551e-01 -7.19280168e-02 +2.61010323e-03 -6.64626285e-02 +3.30261607e-03 +2.79539879e-02 -2.67682880e-01 -1.28284872e-01 -5.88219389e-02 +1.50740087e-01 -1.16939589e-01 -7.06131831e-02 -1.38502717e-02 -5.06926626e-02 -5.27077615e-02 -1.15313046e-01 -6.23770943e-03 -2.88947765e-02 -3.55662452e-03 +6.70555979e-02 -1.45768613e-01 +4.38924767e-02 -2.13936076e-01 +8.37915689e-02 -6.91961646e-02 +1.98273435e-01 -3.65514420e-02 +4.86595044e-03 -1.15192980e-02 +1.63484156e-01 +7.19504654e-02 -6.41985759e-02 -4.35597487e-02 -8.39137137e-02 +3.32496837e-02 -1.32309804e-02 -3.06305606e-02 +5.19238673e-02 -4.25560288e-02 +1.27428532e-01 -6.96973503e-03 +7.77778476e-02 -6.14271127e-02 -1.79382533e-01 -7.95286223e-02 +1.88046843e-01 +3.99741307e-02 -1.46537304e-01 +1.54988155e-01 +3.33815813e-02 -5.26695214e-02 -1.28606170e-01 +4.11005281e-02 -7.00518563e-02 -5.59389964e-02 +1.50908858e-01 -8.66642296e-02 -1.11361153e-01 +3.65443490e-02 -5.45714498e-02 -4.07916568e-02 +6.12627305e-02 +1.29541650e-01 +4.03797850e-02 -1.18964002e-01 +9.51789096e-02 -6.61933124e-02 -4.19751788e-03 +3.48158889e-02 -2.66528223e-02 -7.72293881e-02 +6.69433968e-03 -2.62834653e-02 +1.32525638e-01 +1.06328018e-01 +1.02620803e-01 +1.81701690e-01 +1.75591871e-01 +1.36783913e-01 -1.02684319e-01 +1.13418534e-01 +9.43777859e-02 +1.35803580e-01 +2.26036198e-02 -8.22934061e-02 +1.13566287e-01 +1.32062256e-01 +1.65422142e-01 -7.90269822e-02 +5.57279661e-02 +9.91801471e-02 +9.11756456e-02 +2.61303663e-01 +7.11167231e-02 +1.69554859e-01 +7.17052305e-03 +1.05513424e-01 +4.02378924e-02 -1.74658801e-02 -8.42215940e-02 +5.09037264e-02 +7.21854195e-02 +2.03856807e-02 +1.06932096e-01 -1.19757243e-01 +1.91053569e-01 +2.25665290e-02 -6.66357204e-02 +1.41663328e-01 -3.00799720e-02 +1.33391485e-01 +6.91351593e-02 -5.93851060e-02 +2.93882191e-02 -7.88159817e-02 +1.23839267e-01 +6.85000569e-02 +1.02236368e-01 +5.96085843e-03 +4.74301502e-02 -4.93543595e-02 +1.13957673e-01 +9.49692279e-02 +9.41276848e-02 +8.97094309e-02 +1.36386603e-01 +1.49178281e-01 +5.61173744e-02 +9.64541920e-03 +4.31974269e-02 +1.79230213e-01 -1.34398073e-01 +1.32737324e-01 -1.12962432e-01 -1.15423687e-01 +6.58400208e-02 -7.62489289e-02 +4.40662205e-02 +9.30137560e-02 +3.25935669e-02 -1.22981548e-01 -2.50418461e-03 -2.57042740e-02 -1.47424921e-01 -1.12512574e-01 -1.19070999e-01 +1.18337972e-02 +1.76730812e-01 -1.48416003e-02 -7.02554882e-02 +3.40292836e-03 +9.34579074e-02 +1.22014778e-02 -1.26060322e-01 -1.03524774e-01 +7.11513013e-02 +1.00191914e-01 -1.66657951e-03 -1.13311306e-01 -2.70902235e-02 +7.78830573e-02 +8.00480396e-02 +2.98223048e-02 -4.09336425e-02 +9.46163200e-03 -2.37297956e-02 +6.01142570e-02 -8.01293254e-02 -2.37344299e-02 +6.36793375e-02 -1.25800461e-01 -6.32692873e-02 -5.26884161e-02 +5.93702197e-02 -7.38671347e-02 -2.17469096e-01 +2.63256822e-02 +1.46878824e-01 +8.14585760e-02 +2.06652582e-02 -1.06539913e-01 +2.71344092e-02 -4.90097106e-02 +6.53087795e-02 +8.46758187e-02 +1.41094336e-02 -7.69210886e-03 -8.54544118e-02 -1.12960607e-01 +1.03361383e-01 -7.42723346e-02 +4.41963114e-02 -7.70070218e-03 -2.97835637e-02 +7.68482387e-02 +1.22561529e-01 +2.12863550e-01 +1.33353263e-01 -8.65706652e-02 +1.28518060e-01 +7.77401542e-03 +4.48659621e-02 -1.60016399e-02 -2.25814022e-02 +2.49586865e-01 -1.48555152e-02 +7.79192373e-02 -1.05951011e-01 +1.34743944e-01 +8.96435305e-02 +1.19451188e-01 +3.75401340e-02 +2.38543525e-01 +1.31602615e-01 -2.53419741e-03 +5.97890392e-02 +1.17041588e-01 -4.79866676e-02 +1.30880829e-02 +1.18724540e-01 +2.43484661e-01 +6.40810877e-02 -7.28340894e-02 -2.64785122e-02 -3.01953927e-02 +1.57271862e-01 -3.09864106e-03 +1.78696156e-01 +6.54037222e-02 -6.44652843e-02 +1.96328774e-01 +1.81437179e-01 -1.13743648e-01 +1.36737883e-01 -7.33383419e-03 +2.85639558e-02 +1.08072907e-01 +1.66490570e-01 -2.93478779e-02 +2.29967073e-01 +4.45779227e-02 +2.32302278e-01 +1.78439096e-02 +4.41882238e-02 -8.18040296e-02 +5.90519346e-02 -1.07424306e-02 +5.57486750e-02 -4.99318764e-02 +1.47414908e-01 +1.05238847e-01 +7.80476406e-02 +1.81569308e-01 -5.69481738e-02 +1.85297623e-01 +2.49041952e-02 +4.42847423e-02 +1.70047507e-01 +1.73157036e-01 +1.25087708e-01 -3.96569818e-02 -1.82889864e-01 -1.24455169e-01 -5.85304759e-02 -1.14809200e-01 +9.12881792e-02 -5.54823801e-02 -6.71724305e-02 -1.69619292e-01 -1.25270169e-02 -2.75762323e-02 +8.48282054e-02 -1.36721224e-01 +1.30110845e-01 +2.14597270e-01 +2.93685794e-02 -2.40754515e-01 -4.28416170e-02 -2.15815753e-01 +1.74626082e-01 -1.73598796e-01 +4.90884781e-02 -1.26980022e-01 +2.62173116e-02 +2.26257350e-02 +2.20778793e-01 +1.63099334e-01 -2.30749652e-01 +6.61871806e-02 -4.67037633e-02 +1.63314179e-01 -2.41648898e-01 +1.82840213e-01 +6.01727851e-02 +4.89124618e-02 +1.65915832e-01 -9.11991596e-02 +1.65071413e-01 -1.10517509e-01 -1.47162467e-01 +2.23754793e-01 +8.67516175e-02 +1.69316694e-01 -8.85331705e-02 +1.05834328e-01 -2.26843193e-01 +1.16416730e-01 +9.67673510e-02 -6.69762269e-02 -5.49355894e-02 -1.80882990e-01 +5.47263119e-03 +1.17537659e-02 +1.73581243e-02 +1.24155872e-01 +5.40218018e-02 +1.68768764e-02 -5.71011603e-02 +1.83445271e-02 -1.14160903e-01 +4.20557633e-02 -1.75054669e-01 +1.63822547e-01 +6.40233532e-02 -1.02919238e-02 +1.34833567e-02 +3.11111249e-02 -7.02739805e-02 -7.91345984e-02 -1.23089477e-02 -3.12991515e-02 +1.04702204e-01 -2.13236690e-01 +1.00704141e-01 -1.25710323e-01 -3.16431783e-02 +9.46430191e-02 -1.88637134e-02 -7.80939357e-03 -9.09242183e-02 -1.11115582e-01 -6.45063594e-02 +1.22847982e-01 +3.89400348e-02 -4.13165726e-02 -1.02791727e-01 -1.12850837e-01 -9.96708274e-02 -4.06695064e-03 -1.03564940e-01 +1.66411046e-02 -1.56140670e-01 -2.02702507e-02 -1.09245189e-01 -1.85875862e-03 -1.65342644e-01 -1.09702401e-01 -2.16519516e-02 -8.54118168e-02 -9.44275334e-02 -2.35748221e-03 +3.66562456e-02 +5.99406846e-02 +7.17144161e-02 -1.10251317e-02 -2.75458302e-03 +7.92137459e-02 -6.84345737e-02 +6.63109720e-02 -7.29413554e-02 +1.04866795e-01 -1.92084134e-01 +9.85637382e-02 +7.45755658e-02 -3.80537771e-02 +1.16147153e-01 -9.05947313e-02 +5.89073561e-02 -9.47934985e-02 +1.19823180e-02 -1.02044851e-01 -3.97511795e-02 +6.97491840e-02 -8.13898146e-02 -1.16983645e-01 +3.14392596e-02 +9.36264023e-02 -6.25661314e-02 +3.19112139e-03 +7.53610432e-02 +1.03304654e-01 +8.28338228e-03 -6.51970357e-02 -9.31834430e-02 +5.49364947e-02 +1.31644204e-01 -5.78650571e-02 +9.40350890e-02 -5.61117604e-02 +5.28442338e-02 +1.59059927e-01 -1.08978957e-01 -5.64337075e-02 -1.90856792e-02 -4.01748233e-02 +1.81529596e-02 +8.42709169e-02 -1.08361274e-01 -1.31219760e-01 +2.86282040e-02 -6.16371855e-02 +3.67805511e-02 +6.11968245e-03 -9.14523304e-02 +1.33485403e-02 +1.35931512e-02 -1.03227600e-01 +1.37080297e-01 -4.07836959e-02 -1.45721771e-02 -4.02880535e-02 -3.82771678e-02 +8.76403376e-02 -1.37595832e-01 +1.17330231e-01 -2.79016350e-03 +1.13903172e-01 +1.34634655e-02 -1.07608303e-01 -1.30954161e-01 -1.06778033e-01 +8.18820000e-02 +6.72567934e-02 -7.98127986e-03 -1.44536003e-01 +9.13043395e-02 -9.61088613e-02 +4.41546115e-04 +8.70579779e-02 -3.26099177e-03 +3.36677060e-02 -8.07955638e-02 +2.91815195e-02 +1.11216784e-01 +1.25842914e-02 +3.84173617e-02 +4.63290699e-03 -1.30445987e-01 -3.63647789e-02 +6.02304377e-02 +6.49437755e-02 -9.46124122e-02 -1.50685698e-01 -1.15720712e-01 -4.93431166e-02 -1.49817318e-01 -2.03832262e-03 -2.10314482e-01 +3.63018662e-02 +6.81937784e-02 -2.32165486e-01 +5.13957366e-02 -9.13247243e-02 +4.14217561e-02 -7.56405666e-02 -7.47474506e-02 -1.54275313e-01 -1.36923939e-01 -8.38383660e-02 -1.71352133e-01 -9.45675969e-02 -5.88752888e-03 -3.49727040e-03 -1.54588521e-01 +7.25104660e-02 +1.20427415e-01 +2.10053101e-02 -1.32690758e-01 -8.69847462e-02 +1.52928131e-02 -1.49735287e-01 -3.00205350e-02 +3.86810326e-03 -3.04868747e-03 -2.13298779e-02 -7.23678023e-02 +6.21920042e-02 -7.30812848e-02 -6.55308738e-03 -3.15961502e-02 +7.24607110e-02 +1.39408335e-01 +8.80411938e-02 +6.96365461e-02 -5.88521920e-03 -6.84169456e-02 +8.03031996e-02 -1.37708187e-01 -1.54265603e-02 -5.31019792e-02 +8.31018388e-02 -3.73404659e-02 -2.04646867e-02 +9.12305042e-02 -4.43505719e-02 -5.56271039e-02 +6.29383400e-02 -7.95901269e-02 -7.49882730e-03 +3.52386683e-02 -1.35063633e-01 -4.10846667e-03 -1.61818743e-01 -1.43700615e-01 -8.17829221e-02 -1.33168906e-01 -6.65587187e-02 +5.24106920e-02 -1.87571257e-01 -3.09516173e-02 +1.02772273e-01 -7.91480839e-02 -1.13283224e-01 +1.05661876e-01 -2.16947347e-01 +6.78945631e-02 +1.86872721e-01 -2.89222486e-02 +8.38001519e-02 +1.16556488e-01 -6.16902411e-02 -1.48768529e-01 +3.29236360e-03 +1.74185634e-01 +1.48063853e-01 -6.97221085e-02 -1.10938311e-01 +3.11210472e-02 +5.72364964e-02 +1.52366608e-01 -8.22568908e-02 -3.39271314e-03 +1.28521889e-01 -1.50487619e-02 -1.72268122e-01 +2.51462102e-01 -8.07154365e-03 -6.41549230e-02 -1.77790850e-01 -1.52285740e-01 -1.16287835e-01 -5.14294766e-03 +1.58339411e-01 -9.74983629e-03 -9.63020846e-02 -1.74928252e-02 +1.32164896e-01 +5.02924807e-02 -6.54945970e-02 +3.05702910e-03 +8.32127854e-02 +9.58865285e-02 -7.10517168e-02 -2.19391540e-01 +1.39277786e-01 -1.76782534e-02 +7.28052780e-02 -3.81960790e-03 +1.20141022e-01 -6.41319379e-02 -1.37663931e-01 -6.05622418e-02 -9.51909199e-02 -5.69210202e-02 +7.01548010e-02 -4.49100770e-02 -1.55675700e-02 -1.35341585e-02 +8.75872299e-02 +1.77464485e-02 -1.61257088e-01 +6.29624128e-02 -1.81097910e-01 -4.70637679e-02 -1.18279099e-01 -9.56526995e-02 +3.45149674e-02 +3.26439738e-02 +3.15802991e-02 -3.51494998e-02 +6.03535399e-03 +3.09430566e-02 -3.48859169e-02 -9.33105871e-02 +1.06066361e-01 -9.11170766e-02 -1.68412164e-01 +1.22167952e-01 +4.29640748e-02 -1.22193493e-01 -1.29201099e-01 -1.29279152e-01 +2.73323618e-02 -7.46946484e-02 +2.52407324e-02 -2.08569244e-02 +9.23194885e-02 -1.43329725e-01 -9.02424604e-02 -7.32323602e-02 +4.91250418e-02 +6.20048344e-02 +5.37414961e-02 -6.71796873e-02 -1.50015637e-01 +7.14707226e-02 -3.51062194e-02 -7.44531006e-02 +3.45663987e-02 -4.51728776e-02 +4.96767834e-02 -1.83410887e-02 -8.20494890e-02 -1.36550870e-02 -2.97451634e-02 +2.64770593e-02 +1.34308683e-02 -1.16538927e-01 -7.56367156e-03 -1.01949707e-01 -1.48414686e-01 -3.82993594e-02 +4.97546047e-02 -1.34817272e-01 -9.71382111e-02 +4.76600230e-02 -1.63082015e-02 +1.60602871e-02 -1.77429527e-01 -1.02182381e-01 -1.12546176e-01 -1.54244065e-01 -1.02346160e-01 -1.20391756e-01 -9.73372236e-02 -1.37469858e-01 -8.10333267e-02 +2.58886516e-02 +1.25736058e-01 -8.18300098e-02 +4.90169786e-02 -8.03646445e-02 -9.42440480e-02 +1.08356453e-01 +9.74684507e-02 -7.83580448e-03 -1.49560615e-01 +8.40059519e-02 -1.69326682e-02 -1.23496301e-01 -5.07315323e-02 +7.15141445e-02 +1.10886507e-01 -1.05126321e-01 -8.45737979e-02 +9.33898315e-02 -8.08611363e-02 -1.31206527e-01 +6.77027926e-02 +3.42438743e-02 +7.57350177e-02 +4.09861617e-02 -8.08212087e-02 +3.84377018e-02 -1.36787653e-01 -4.00034599e-02 +5.20895720e-02 -6.48905337e-02 +3.72030996e-02 -1.54618807e-02 -5.48675843e-02 +3.37236673e-02 -6.33687750e-02 -2.49562804e-02 -9.79366452e-02 +4.85479571e-02 -1.27885418e-04 -8.44746903e-02 -1.28440335e-01 +1.60210222e-01 -2.79540867e-02 -6.90412968e-02 +5.21028638e-02 -1.04497112e-01 +8.90030712e-02 +1.18244328e-02 -9.46500674e-02 +7.19324406e-03 -5.00107147e-02 +1.17235044e-02 -1.44795030e-01 +1.35268629e-01 -2.54875273e-02 -8.96530226e-02 +1.98968500e-02 -7.05647608e-06 +8.94865394e-02 +2.49966122e-02 +5.60840592e-02 -2.16554776e-02 -7.32983500e-02 +1.11570969e-01 +3.46301659e-03 -3.52906324e-02 +9.49905217e-02 -1.61947142e-02 +7.97909424e-02 -6.83862120e-02 +3.07356031e-03 -1.46746710e-01 -1.93012148e-01 -5.40072769e-02 +1.01220133e-02 -6.07743189e-02 -2.12764919e-01 +1.21535800e-01 +3.46034952e-02 +2.93120854e-02 -2.96453293e-02 -1.07542865e-01 +7.02165663e-02 -7.72309154e-02 -7.05409388e-04 -2.80834697e-02 -9.62597206e-02 +2.83077303e-02 -6.71772435e-02 +3.76473553e-02 +3.91738303e-02 -3.05070411e-02 -1.20458752e-01 -8.48990083e-02 -1.76937222e-01 -1.42280012e-01 +5.44372424e-02 -1.43809514e-02 -1.27093881e-01 +9.93175283e-02 +5.08090183e-02 +4.63006832e-02 -1.28858700e-01 -3.96295376e-02 -1.27827033e-01 -9.35107097e-02 -1.19324632e-01 -1.45172879e-01 -1.12554878e-01 -8.67055282e-02 -1.10488646e-01 -8.51039141e-02 +1.00589313e-01 -2.96789277e-02 +6.36444837e-02 -1.99180514e-01 +7.94304013e-02 -2.91452184e-02 -2.84986235e-02 +4.18990180e-02 +2.50026919e-02 -1.23470210e-01 -1.67800203e-01 +2.85080634e-03 +1.24930635e-01 +1.44295320e-01 +1.18737482e-01 -1.11524329e-01 +2.44110189e-02 -2.60971091e-03 +7.01186359e-02 +1.06941275e-01 -3.49927731e-02 +1.35717824e-01 +6.42066672e-02 -1.13836862e-01 +6.24237582e-02 -5.29095344e-02 -1.44683480e-01 -6.01758808e-02 +2.03805879e-01 -1.27395242e-01 -2.62222663e-02 -1.11988872e-01 +1.10218205e-01 -1.74634457e-01 -4.76595722e-02 -6.99751377e-02 -1.30108029e-01 -6.97970390e-02 -1.90013677e-01 +2.34135866e-01 +5.94854876e-02 +2.11294949e-01 -2.21892491e-01 -1.16468566e-02 +1.58429909e-02 -1.24403857e-01 -2.47289300e-01 -2.23437753e-02 +7.32330829e-02 -1.85589910e-01 +1.54352516e-01 +1.61898896e-01 -1.79114625e-01 -1.85959235e-01 -5.60037270e-02 -7.92113915e-02 -9.90602076e-02 -1.00813478e-01 +2.24135667e-02 +7.94994384e-02 +3.35756466e-02 -3.14414836e-02 +1.83767274e-01 +7.83173963e-02 +1.30124822e-01 +1.63634717e-01 +2.26969440e-02 -1.84835121e-01 +1.61662772e-01 -1.11417800e-01 -8.72662961e-02 +1.05618969e-01 +7.92370513e-02 +5.97270243e-02 -1.75526917e-01 -6.17325231e-02 +8.32489058e-02 +9.56434011e-02 +1.47238281e-02 +1.99196972e-02 +4.54005040e-02 +1.07954904e-01 -5.98653257e-02 -9.43313390e-02 +6.29232526e-02 +1.78095996e-01 +2.35960558e-02 -8.49516690e-03 +1.66146591e-01 +9.24262553e-02 -1.15501754e-01 +1.59784079e-01 +1.54234454e-01 +4.43759784e-02 +1.23752661e-01 +1.73993260e-02 -8.89150053e-03 +1.40942574e-01 +1.49667114e-01 +1.18903674e-01 +4.68332879e-02 -1.73313655e-02 -7.34731406e-02 +7.29034990e-02 -8.67203027e-02 +4.50296588e-02 +1.16516382e-01 +4.88597602e-02 +1.58644617e-01 -8.76460746e-02 +7.66090378e-02 +1.41339615e-01 +2.76151225e-02 +1.79865256e-01 +1.63224682e-01 -1.03474766e-01 +9.28118359e-03 +1.64476365e-01 +8.38655829e-02 -8.28923434e-02 +1.34922639e-01 +2.49186177e-02 +1.14053637e-01 +1.42950147e-01 +3.15831639e-02 -2.11202633e-02 -7.45979045e-03 +1.55455889e-02 -2.43677553e-02 +1.36979654e-01 +1.45616278e-01 -8.85038301e-02 -4.78156507e-02 +1.06657758e-01 -1.02110237e-01 -5.80437966e-02 -4.09971699e-02 +4.46033292e-02 +9.27789509e-02 +5.04856035e-02 -1.19094579e-02 +1.09829731e-01 -1.71737163e-03 -1.12068951e-01 +9.18770581e-02 +3.66311185e-02 -3.65111814e-03 -2.22839601e-02 -8.84908289e-02 +7.60613084e-02 +1.23262614e-01 +9.82546881e-02 -7.17877150e-02 -4.94027957e-02 -2.04765163e-02 -6.14400313e-04 +7.48752877e-02 +3.60011905e-02 -7.70454388e-03 +6.04326949e-02 +7.85043240e-02 -5.16529419e-02 -7.55441859e-02 +1.88069064e-02 -2.31908057e-02 -1.31450742e-01 -8.02306160e-02 +1.46218061e-01 -6.45267889e-02 -7.15080500e-02 +4.77921329e-02 +7.19031319e-02 -8.92243756e-04 +9.55909083e-04 -1.07049935e-01 +1.06964596e-01 +2.76972074e-02 +1.05263390e-01 -1.31827012e-01 -2.02939077e-03 +9.34666097e-02 -1.06837779e-01 +9.94821861e-02 -1.39497265e-01 -9.02524441e-02 -5.24058975e-02 -9.26272385e-03 +1.49160668e-01 -9.64310467e-02 +1.05367828e-04 -8.98693800e-02 +7.19568804e-02 +4.99765836e-02 +7.25471303e-02 +4.56276573e-02 +3.74729000e-02 -2.12869421e-01 +1.16637163e-01 -1.51927527e-02 -1.20365612e-01 -1.12824500e-01 +1.91586744e-02 -1.02619328e-01 +4.30541486e-02 +2.40972638e-03 +3.49184014e-02 +1.34880394e-01 +9.26546678e-02 +8.67616981e-02 +1.49681777e-01 -8.60884711e-02 -3.60549986e-02 +1.81649461e-01 +5.45213409e-02 +1.28393108e-02 +2.65045115e-03 +4.74899914e-03 +7.90506378e-02 +5.91642596e-02 -2.60996409e-02 +1.53301492e-01 +1.17428944e-01 +3.47891040e-02 -2.68804803e-02 -1.26958385e-01 +7.61771156e-03 -2.63590440e-02 -2.89220866e-02 +1.28401816e-01 +6.86605126e-02 -8.82892758e-02 -6.81072026e-02 +4.24318053e-02 +3.67940217e-02 -3.15368436e-02 +8.04960728e-02 +1.43105447e-01 -1.67111997e-02 -4.77421843e-02 +1.27692372e-01 +8.85087401e-02 -6.53688423e-03 +1.34299099e-01 -7.25861127e-03 +1.38800859e-01 -3.04507203e-02 -2.84345336e-02 -5.39603941e-02 +9.64351818e-02 +1.52166456e-01 -4.63232361e-02 +2.17520483e-02 +8.05032700e-02 +9.94563401e-02 +1.76829070e-01 +8.90134275e-02 +1.24877736e-01 +6.22703321e-02 +9.71416906e-02 +1.98745690e-02 +4.22484465e-02 +1.77633062e-01 +5.91573454e-02 -4.43445407e-02 -7.29461238e-02 +8.73497799e-02 -6.28597522e-03 -1.74891278e-02 +8.35666880e-02 -1.18050076e-01 -6.32295087e-02 -1.67781633e-04 -3.34013402e-02 +1.69713452e-01 -8.91417041e-02 -1.66419446e-01 +1.87852401e-02 +7.43642822e-02 +4.29822877e-03 -5.49166501e-02 -2.49893725e-01 -5.00450544e-02 +1.34425275e-02 +1.46186337e-01 -8.74557048e-02 -1.53651550e-01 -1.92499071e-01 +2.10227117e-01 -5.78808114e-02 -1.10383093e-01 -1.59280952e-02 -8.12393874e-02 +9.51406918e-03 +2.05440491e-01 +1.64211705e-01 +2.64171474e-02 -1.11187808e-02 -2.52135932e-01 +1.68185234e-01 -6.78876936e-02 +1.22741386e-01 +1.86831921e-01 +7.93164130e-03 +1.59206271e-01 -9.53106880e-02 +9.79302302e-02 +3.77252065e-02 -8.09260681e-02 +2.12827072e-01 +2.66230218e-02 -6.80522248e-02 +2.52832994e-02 -1.13559492e-01 -2.62980964e-02 +1.14640212e-02 +2.46722132e-01 -1.05138920e-01 +9.49857943e-03 -2.30971929e-02 +1.05040945e-01 -8.04812387e-02 +2.43265126e-02 +2.00323492e-01 -4.74597514e-02 -6.18889853e-02 +1.28712580e-01 +5.17684817e-02 -3.04333847e-02 -1.70714818e-02 -1.15071736e-01 +9.88597944e-02 -1.67986393e-01 +1.21223807e-01 +1.16887249e-01 -1.65517833e-02 -1.02122776e-01 +1.08757734e-01 -3.79690924e-03 -4.19038907e-02 +8.50028172e-02 -1.18818030e-01 -9.45297629e-02 +2.14816574e-02 -1.22728378e-01 -8.98556262e-02 +1.15114033e-01 -4.20590751e-02 +1.14595769e-02 -1.06898025e-01 -5.14399521e-02 +1.13158666e-01 +7.46380091e-02 +4.32131551e-02 +3.83738684e-03 -1.36433527e-01 -7.87341446e-02 +1.70346469e-01 +2.63275579e-02 -1.03757940e-02 -9.88804623e-02 +1.36002339e-02 +6.05731457e-03 -1.61804296e-02 -1.58114120e-01 -3.37510332e-02 -1.85431596e-02 +1.63548276e-01 -1.39735162e-01 -7.36117512e-02 +1.94740165e-02 +4.40343879e-02 +9.92280710e-03 +9.19079706e-02 +2.36907080e-02 +8.70656874e-03 +3.71703319e-02 +4.83342120e-03 -4.08743732e-02 +3.62366103e-02 +6.97788671e-02 +4.40031104e-02 -1.41843809e-02 -9.77209583e-02 -4.35139015e-02 +6.84298947e-02 +7.05024898e-02 +1.47263557e-01 -1.43889124e-02 +8.35744664e-02 -1.03915423e-01 +8.13235492e-02 -4.24848311e-02 +5.65655753e-02 +8.88356566e-02 +1.09207675e-01 +7.65990093e-02 +6.47325516e-02 -8.23692009e-02 -1.16679288e-01 -3.84704508e-02 -5.78818284e-02 +3.42169069e-02 -1.11554094e-01 +1.11458875e-01 -3.37884799e-02 -3.78794968e-02 -7.01086819e-02 +2.80544739e-02 +3.21653895e-02 -3.19727734e-02 -5.65948263e-02 -1.37650192e-01 -1.31611571e-01 -8.70786309e-02 +4.02692892e-02 -9.56554990e-03 -1.00503437e-01 +8.49347189e-02 -1.57951675e-02 +7.65977949e-02 +7.87758455e-02 -1.00999169e-01 +2.12042741e-02 -4.53268103e-02 -1.39290661e-01 -7.30867833e-02 +1.35379478e-01 -6.79972619e-02 +5.95919415e-02 -1.46585181e-01 +1.27044261e-01 -1.25446960e-01 -5.08552603e-02 -1.43454270e-02 +1.31591419e-02 +8.85940809e-03 +4.89196964e-02 -3.99296135e-02 -9.48009938e-02 -1.85347304e-01 +9.07214265e-03 -7.45690092e-02 -1.29186198e-01 +1.48003940e-02 -1.18192233e-01 -8.96534845e-02 -3.62643450e-02 -8.54049847e-02 +8.51471797e-02 -6.65333122e-02 -8.80212933e-02 -2.07970776e-02 +3.77200060e-02 +8.26000199e-02 +3.15042920e-02 -1.45910054e-01 -8.31576064e-02 -1.42555505e-01 +1.68172985e-01 -8.04242343e-02 -1.07414819e-01 -8.24409127e-02 +7.31509626e-02 -6.09087478e-03 +1.61232986e-03 -1.54338926e-01 +9.10628662e-02 +2.23406497e-02 +7.74412155e-02 +7.64487032e-03 -3.83812338e-02 -4.15768661e-02 +6.51026890e-02 -6.77209124e-02 +1.96180753e-02 -8.52648020e-02 +9.15696099e-02 +8.81481543e-02 +6.54193684e-02 +1.07522951e-02 -1.67238582e-02 +5.69040552e-02 +1.52127460e-01 +9.63658392e-02 +6.85744286e-02 -6.36233687e-02 -6.66494295e-02 +1.54625237e-01 +6.89889938e-02 -7.98355415e-02 +1.06946826e-02 -1.88771799e-01 +5.82260862e-02 +4.72078584e-02 +8.93338695e-02 -9.03359726e-02 +1.08980671e-01 +6.13817982e-02 -2.03187913e-02 -4.96525653e-02 +4.45545018e-02 -1.22694492e-01 +4.77400981e-03 -4.43646200e-02 +3.92762683e-02 +1.16901644e-01 +6.75023273e-02 +1.99482255e-02 -4.42874134e-02 -2.90586557e-02 +8.75515044e-02 -6.62760884e-02 -1.64052188e-01 -8.05465057e-02 +2.29405947e-02 -2.42767856e-02 +3.21740806e-02 +8.14119354e-02 -7.00119808e-02 +8.16399679e-02 -1.25003070e-01 +1.09130263e-01 -8.91367495e-02 -1.26332939e-01 +2.97793783e-02 -1.26735851e-01 +1.00524388e-01 -6.18907809e-02 -1.03664622e-01 +6.97504133e-02 -2.34231427e-02 -1.41621917e-01 -4.94272113e-02 -1.97935730e-01 +1.38982505e-01 -9.12346989e-02 +1.06198888e-03 -5.22348518e-03 +6.47056848e-02 -1.34248585e-01 -9.38677415e-02 +5.70608936e-02 +7.11314529e-02 -2.36716550e-02 -8.80889446e-02 -3.16722281e-02 -7.43385106e-02 +1.06674179e-01 -7.07289577e-02 +7.75007084e-02 +5.73842824e-02 +6.58862069e-02 -1.09003983e-01 -2.85969046e-03 +2.52711512e-02 -2.48539802e-02 -1.17007233e-02 +1.33537948e-01 +3.39819118e-02 -2.24279445e-02 +1.02981940e-01 -1.49766564e-01 -9.85556692e-02 +3.19256000e-02 +2.16123566e-01 -1.51165321e-01 -1.21934444e-01 -7.77925327e-02 +2.67156772e-03 +1.34222344e-01 +3.06367967e-02 +1.96963549e-02 +8.08205530e-02 -3.89377326e-02 +1.07879154e-02 -1.06836796e-01 +1.25742391e-01 -8.72814730e-02 +9.19003710e-02 -1.30129933e-01 -6.70571923e-02 +7.30074868e-02 -1.04374468e-01 -4.73354496e-02 -2.39019301e-02 +3.51224691e-02 +4.05752212e-02 -8.71740282e-02 +1.36615247e-01 -1.31776378e-01 +6.46400675e-02 +5.49080707e-02 -7.61388391e-02 -3.28231826e-02 +1.00406811e-01 +1.19063400e-01 +6.74253702e-02 -7.57842436e-02 -1.08712360e-01 -2.95477249e-02 +3.14323790e-02 +7.43545778e-03 +2.01845728e-02 -1.08721845e-01 -3.64728682e-02 +1.37982935e-01 +1.64495241e-02 -1.33383200e-01 -4.84256521e-02 +9.77846049e-03 +9.69882961e-03 +2.49688160e-02 -8.89892429e-02 -8.34296495e-02 -1.25670671e-01 -1.55569222e-02 +1.12219155e-01 -6.71171546e-02 -1.39891610e-01 +1.12966470e-01 +4.74831983e-02 -1.25985250e-01 -8.79031196e-02 +1.34494096e-01 +2.23904084e-02 -9.80473235e-02 +8.66125748e-02 -5.23259491e-02 +7.87954703e-02 -1.51380271e-01 -1.35567829e-01 -1.33496746e-01 +5.05109429e-02 +2.16874648e-02 +1.19009517e-01 +8.63324404e-02 +1.08688213e-01 -8.55441913e-02 -1.31661966e-01 +5.35113402e-02 +9.22104567e-02 +4.44264933e-02 -1.21096238e-01 +4.15060371e-02 +2.17232481e-02 +3.16749029e-02 +9.72692668e-02 -5.83315901e-02 -7.06459209e-02 +1.16513953e-01 -9.03887078e-02 +6.18204959e-02 +6.02014475e-02 +6.05374463e-02 +2.69980058e-02 +9.48291942e-02 -8.20657536e-02 -3.21434513e-02 -8.31309706e-02 +2.17023324e-02 +7.13765174e-02 -3.54943126e-02 -1.93154532e-02 +6.74583018e-02 +3.18846554e-02 -1.22723766e-01 +1.32462699e-02 -6.03621406e-03 -3.57880741e-02 -1.78111345e-02 -6.87020719e-02 -5.71851358e-02 -4.57141139e-02 -1.08919963e-01 +5.79625778e-02 -3.20357494e-02 -1.20970830e-01 +1.02254683e-02 -9.07662585e-02 +5.44382334e-02 +2.42899209e-02 +1.15943126e-01 +4.42807004e-02 +5.85760660e-02 -6.95870146e-02 -5.05567268e-02 +5.14540970e-02 -8.44721496e-02 -1.49229495e-02 +6.34477884e-02 +8.44907314e-02 +9.88291111e-03 +3.82106639e-02 +1.31276593e-01 -4.29001786e-02 -5.50364628e-02 +2.51688641e-02 +1.05401769e-01 -1.37490794e-01 +1.03082322e-02 +1.36822392e-03 -1.25566840e-01 -8.09431449e-02 -7.26164179e-03 +3.11592799e-02 -8.41013491e-02 -4.42117378e-02 -1.22345373e-01 +3.46871763e-02 -4.46732044e-02 -1.09892078e-01 +4.90197353e-02 -5.54256476e-02 -1.18758250e-02 -6.66867569e-02 +1.11279808e-01 +1.03648275e-01 -2.20869039e-03 +5.73663451e-02 -6.16728179e-02 -1.73032321e-02 -5.04756942e-02 -6.27175793e-02 -1.62209675e-01 +1.28679410e-01 -2.70908400e-02 -1.14301786e-01 -5.83211184e-02 +6.78137615e-02 +1.19061038e-01 -7.90851042e-02 -1.34951398e-01 +6.14709146e-02 +6.18439540e-02 -5.52999005e-02 +6.11612871e-02 -1.07750706e-01 -7.56437406e-02 -1.03564821e-01 -7.67744472e-03 -2.49491967e-02 -2.67078038e-02 -3.19790281e-02 -1.06123947e-01 +2.49238554e-02 -4.01172452e-02 -1.31633893e-01 +5.80191612e-02 +2.96612941e-02 +6.91947266e-02 -8.96161497e-02 -4.80361879e-02 -1.31690308e-01 +7.27855340e-02 -3.98707651e-02 +5.71604781e-02 +7.74069577e-02 -1.34257659e-01 -1.44974992e-01 -5.44930473e-02 +7.96925128e-02 +1.17118567e-01 -1.16310179e-01 -2.80594770e-02 +1.14285819e-01 +1.00550622e-01 -1.23514481e-01 +4.48031910e-02 -9.27433670e-02 -7.37451315e-02 -1.16988771e-01 +4.06852886e-02 +1.15959123e-01 -1.12299010e-01 -9.01209712e-02 -1.17495000e-01 -6.69979751e-02 +5.73073961e-02 +8.05904493e-02 +4.43587601e-02 -1.01474643e-01 -1.10753234e-02 +1.29603803e-01 +1.54084876e-01 -1.12181500e-01 +8.11304227e-02 +8.56649801e-02 -6.75805360e-02 -6.59419522e-02 +8.44310224e-02 -1.37183234e-01 +4.51875888e-02 +2.48165242e-02 -5.32102212e-02 +4.03493121e-02 +8.28946903e-02 -1.98870059e-02 +1.37230352e-01 +1.06763400e-01 -5.26466705e-02 -1.63012370e-02 -3.96852717e-02 +1.19004831e-01 -1.00978956e-01 +2.27305479e-02 +5.69595955e-02 -1.20086692e-01 -2.55831126e-02 +1.34785444e-01 +1.46698415e-01 -1.05837971e-01 +1.01228245e-01 +1.25697196e-01 +1.07308365e-02 -1.22618023e-02 -9.64183062e-02 -4.50238436e-02 -1.61454417e-02 -1.05521921e-02 -3.65186445e-02 +8.86082053e-02 +1.17328979e-01 -4.09240536e-02 -9.09136161e-02 -1.61419004e-01 +3.58241377e-03 +1.05142877e-01 -6.17924752e-03 +8.30770135e-02 -1.75303984e-02 -1.07680485e-02 -6.33074120e-02 -5.37464507e-02 -6.03051968e-02 +7.89438263e-02 -5.25046960e-02 +4.14680913e-02 +3.00663486e-02 +1.31067663e-01 +3.93548561e-03 +2.57394258e-02 +1.01589307e-01 +3.73857431e-02 +8.63785520e-02 +4.55552191e-02 -4.33059186e-02 -5.42101935e-02 +3.17571536e-02 +1.05650648e-01 +5.61115891e-02 -3.34857255e-02 -1.19790792e-01 +1.59041822e-01 +1.68965280e-01 -5.98969273e-02 +1.91630855e-01 +4.24986444e-02 +8.49686041e-02 +3.91789302e-02 +4.80886139e-02 +1.42398924e-01 +1.13419130e-01 +6.41022548e-02 +1.52387977e-01 +2.66634692e-02 +2.19512098e-02 +4.14699763e-02 +8.41633305e-02 -5.38614765e-02 +4.81351689e-02 -1.04306430e-01 +1.39805237e-02 +3.15342396e-02 -8.09283033e-02 -8.59342292e-02 -6.29812256e-02 +5.82147129e-02 -1.08224340e-01 +7.18686432e-02 +1.23761214e-01 -1.38705075e-01 -1.42665645e-02 -2.40608398e-03 -2.38046609e-02 +1.93838999e-02 -2.06949301e-02 +3.07303537e-02 +1.64556503e-01 -3.91282290e-02 -1.06410623e-01 +7.23255193e-03 +2.40148008e-02 -1.15910850e-01 +8.17180127e-02 -1.07650250e-01 +5.73270023e-02 +1.76899433e-01 +9.70805585e-02 +2.18824055e-02 +1.33503616e-01 +1.78826805e-02 -1.32973254e-01 +1.60840735e-01 +1.05041206e-01 -1.08250491e-01 -1.18898310e-01 -3.79744284e-02 -1.29437476e-01 +6.90809339e-02 -6.19630069e-02 +6.60821795e-02 -8.88840354e-04 -2.85129965e-04 +2.45605428e-02 -4.08993065e-02 -4.23388295e-02 +3.52807790e-02 -7.40043670e-02 -5.51886223e-02 -4.42151800e-02 -2.92921439e-04 -1.45421758e-01 -9.29605514e-02 -6.02744855e-02 +1.04083337e-01 +4.38414104e-02 -9.77932960e-02 -7.79764028e-03 -1.08842924e-01 +3.41743082e-02 -2.63570482e-03 +9.54935618e-04 -4.56446148e-02 -8.50939676e-02 -1.40959263e-01 -1.07108831e-01 -6.70460090e-02 +5.51363900e-02 -1.59286499e-01 +1.16679259e-01 +9.21256542e-02 +1.34892240e-01 -1.03002429e-01 +4.89988886e-02 -1.99634340e-02 -1.32440493e-01 -7.36711398e-02 -9.34724212e-02 +2.98191682e-02 -9.67307016e-03 -7.02363104e-02 -1.00347035e-01 -6.61492348e-02 -1.45957023e-01 +8.49940702e-02 -1.90188780e-01 +1.26654387e-01 +1.23188086e-02 +8.48470405e-02 +1.60289072e-02 -1.15557827e-01 +1.52342506e-02 -4.35907245e-02 +1.37057871e-01 +3.20811607e-02 -1.08768612e-01 +8.50611627e-02 +6.63433224e-03 -3.10451407e-02 -3.46525274e-02 -2.00455785e-01 -4.70151082e-02 +6.64867088e-02 +1.19532384e-01 +1.04129547e-02 +3.78324427e-02 -1.02703966e-01 +1.00673482e-01 -1.38305813e-01 +5.34025468e-02 +6.76396713e-02 +8.48790556e-02 +1.62606817e-02 +1.08131133e-01 -8.85242075e-02 +1.10093974e-01 +3.68844881e-03 +1.20058805e-01 +3.07099940e-03 -5.29418550e-02 +1.01323597e-01 -3.37412544e-02 -6.38540611e-02 +1.41330212e-01 +1.98847651e-02 -1.14634991e-01 -4.42756107e-03 +1.26372203e-02 -6.50917217e-02 -9.91868675e-02 +9.33948457e-02 +1.24613814e-01 -3.51977833e-02 +1.00752302e-01 -1.39347792e-01 +4.13998403e-02 +7.69375935e-02 -1.72745921e-02 +1.94285084e-02 +4.61464599e-02 +5.18605858e-03 +4.93600704e-02 +1.12552196e-01 +1.45297319e-01 +1.22402608e-01 +1.55459279e-02 -1.18413962e-01 -1.00732163e-01 +1.94269970e-01 -1.01560913e-01 +1.34480745e-01 +1.86465066e-02 +1.65423695e-02 +2.61717997e-02 +1.42364159e-01 +1.34040937e-01 -4.29389030e-02 +1.51096329e-01 +4.49585728e-02 -6.30074367e-02 +9.33516026e-02 -7.63519108e-02 +4.22913805e-02 -7.27266744e-02 -5.18974401e-02 +1.21691726e-01 +2.91164592e-02 +2.87673846e-02 -1.37764826e-01 -1.63021255e-02 -8.12292695e-02 +5.56174889e-02 -1.51448667e-01 -2.70184632e-02 -6.93676025e-02 +1.22868478e-01 -3.83904055e-02 -7.97153562e-02 +3.74291912e-02 +1.45377606e-01 -1.15666531e-01 -6.41479716e-02 -1.43101722e-01 +9.27708969e-02 +6.78742081e-02 +7.97166303e-02 -4.87481244e-02 +2.90234089e-01 +4.94817980e-02 +1.19678289e-01 -3.70147415e-02 -4.22944389e-02 +6.68282136e-02 -7.99922943e-02 -8.70487615e-02 -9.93288085e-02 -4.77583930e-02 +1.47362184e-02 -7.49312490e-02 -5.37727214e-02 +7.24643189e-03 +1.46007225e-01 -3.90257277e-02 +6.75040409e-02 -5.21598682e-02 -4.73273098e-02 +5.05816266e-02 +6.12443462e-02 -6.64424151e-02 +6.62913695e-02 -8.50907899e-03 -1.20365828e-01 -2.34699491e-02 +5.40150739e-02 +3.46594467e-03 +1.28986090e-01 +5.45728765e-02 -9.57078487e-02 -1.37263551e-01 +5.31995520e-02 -7.10100308e-02 +6.76283520e-03 -8.62616021e-03 -6.01301380e-02 +2.91382987e-02 +5.57515994e-02 +1.49714639e-02 +1.44650787e-01 -6.14401922e-02 +9.69575271e-02 -3.08828913e-02 +1.55413384e-02 -2.46051811e-02 +1.09444996e-02 +6.20841347e-02 -7.66894072e-02 -4.06421013e-02 +5.50842993e-02 -1.93661198e-01 -1.23423941e-01 +1.27765596e-01 +5.73092327e-02 -7.57092461e-02 -1.03256136e-01 +5.30935787e-02 -1.16094239e-01 +5.71766198e-02 +1.64215162e-01 -1.02502145e-01 -2.85728425e-02 +3.08518345e-03 +8.96977335e-02 +9.70019996e-02 -8.55120122e-02 +5.29230051e-02 +5.16416803e-02 -1.08816111e-02 -2.19958508e-03 -9.21293497e-02 -1.64465159e-02 -1.21553436e-01 -1.34909600e-01 +7.76375458e-02 -1.54979140e-01 -6.27533793e-02 +6.87123090e-02 -3.42943855e-02 +1.19370289e-01 -3.69691290e-02 -1.36434361e-01 -9.95135866e-03 -1.75613239e-01 +6.72653830e-03 -7.39057781e-03 -8.11468363e-02 -7.12775290e-02 -3.32481973e-02 -3.47477719e-02 -7.20186457e-02 +6.45428672e-02 +3.29179056e-02 -3.09305522e-03 +6.89608976e-02 -1.12126119e-01 +8.73066410e-02 -3.64871286e-02 -2.62843515e-03 -8.32735226e-02 -7.39409924e-02 +1.54384328e-02 -8.05481598e-02 +2.60073282e-02 -9.01696980e-02 -6.01216927e-02 -3.90276127e-02 -1.63701689e-03 +4.39528972e-02 +1.49533957e-01 +8.64334404e-02 +7.23120198e-02 +2.22447328e-02 -4.15603369e-02 -1.05626486e-01 +7.49341259e-03 +1.29575133e-01 +9.73854735e-02 +5.71303256e-02 -7.74690881e-02 -1.10415809e-01 -3.54591943e-02 -1.09049477e-01 +1.05500845e-02 +7.46036619e-02 -2.07298547e-02 -2.13375743e-02 -9.03823227e-02 -7.02874437e-02 +1.83413282e-01 +4.33457121e-02 +3.36899385e-02 -9.90342647e-02 -4.89467494e-02 +9.10820365e-02 +1.39818832e-01 -1.05631510e-02 +2.81376801e-02 -1.15367427e-01 +4.21954505e-02 -2.38779970e-02 +1.90238003e-02 +1.13135710e-01 +7.17857108e-02 -4.77023311e-02 -4.19727247e-03 -1.05662651e-01 -9.37248468e-02 +1.58509165e-01 +4.39645909e-02 +1.00061283e-01 -4.25134785e-02 -3.79198901e-02 +9.01994258e-02 +1.21414252e-02 +2.26166826e-02 +1.08447291e-01 -2.25260761e-02 +4.68378477e-02 +4.45118174e-02 -3.43273534e-03 -6.74753413e-02 -1.48617625e-01 -2.28354875e-02 +9.69591886e-02 -1.47604391e-01 -5.18719442e-02 +6.24930747e-02 +1.32583618e-01 -1.33538306e-01 -4.19824123e-02 +9.49962810e-02 +1.49170890e-01 -8.01371858e-02 +1.28592853e-03 +6.98793977e-02 +1.44151628e-01 -1.47719011e-01 -1.21725254e-01 -1.02658644e-01 -1.07968219e-01 +8.37794319e-03 +4.36865874e-02 -3.13069895e-02 -1.64227068e-01 +1.15622475e-03 -2.11909637e-01 -5.67951240e-02 -2.23282371e-02 -1.12130567e-01 -1.17923014e-01 +8.96630064e-02 +2.00890098e-02 +7.21050352e-02 +1.11472942e-01 -2.88245857e-01 +8.94359546e-04 +1.13845639e-01 -1.23661168e-01 +6.03480227e-02 -1.19495608e-01 -5.89958429e-02 +1.20074436e-01 -2.21738145e-01 -9.75988060e-02 -5.48464917e-02 -8.79176483e-02 +2.39576817e-01 +1.28536627e-01 -7.59837497e-03 -1.55627467e-02 -3.70477214e-02 +1.04883134e-01 -1.49310073e-02 +1.16052054e-01 -4.10164194e-03 -1.33910537e-01 +2.51878574e-02 -4.71152365e-02 +1.03636056e-01 -4.51419689e-02 -3.12929526e-02 -3.64733823e-02 -6.43585101e-02 +5.96455634e-02 -6.21435866e-02 -1.89014021e-02 +9.89139751e-02 +8.62036273e-02 -2.70412471e-02 +6.02285527e-02 -1.14965159e-02 -4.39336821e-02 +3.53109697e-03 +4.91761193e-02 +1.06924716e-02 +1.82077580e-03 -1.44712925e-02 +8.93118754e-02 -8.03245157e-02 -8.43034033e-03 +3.85952704e-02 -1.34052023e-01 +6.09354153e-02 -1.54026434e-01 -4.49327193e-02 -2.25568354e-01 +4.26040264e-03 +9.19609740e-02 -8.70894045e-02 +1.40692100e-01 -8.86714365e-03 +9.27956104e-02 -1.70168132e-01 +9.22517180e-02 -1.58245221e-01 -1.28726870e-01 -2.68472210e-02 -1.57332227e-01 +7.50609115e-02 +8.89526978e-02 +9.82716233e-02 -7.79444501e-02 -2.38202084e-02 -1.42651483e-01 -3.49378027e-02 +3.25317495e-02 +1.47520110e-01 -5.13181761e-02 -1.91781614e-02 +2.58328449e-02 +7.12782368e-02 +7.19396994e-02 +1.85088292e-01 -9.69323814e-02 -8.61927345e-02 -6.88899215e-03 -4.40482646e-02 -1.90070570e-01 +1.32765472e-01 +3.20721269e-02 +9.70029458e-02 -5.21615967e-02 +1.37295008e-01 +6.18657060e-02 -4.19839583e-02 -6.64627180e-02 +1.02958709e-01 +1.01757217e-02 +3.71418782e-02 +4.75871377e-02 +2.46538073e-02 -6.07282594e-02 +5.38727306e-02 -1.66986152e-04 +1.71844453e-01 -1.77062005e-01 +1.17385551e-01 +1.81448147e-01 -2.51575606e-03 -5.68186305e-02 -8.14592466e-02 +6.13897741e-02 +7.09084719e-02 +8.86385739e-02 +7.21078366e-02 +2.35361587e-02 -5.23229726e-02 +1.01125814e-01 -6.90625608e-02 +1.29352853e-01 -1.07169822e-02 -1.84323154e-02 +9.87415314e-02 +6.21672831e-02 -7.04449266e-02 +1.49236932e-01 -3.40348482e-02 +1.09828763e-01 -1.07012637e-01 +7.62776136e-02 +1.16201974e-01 +1.71994403e-01 +1.38419345e-01 -1.73821803e-02 -1.14310138e-01 +1.14903180e-02 -2.70685293e-02 -5.96058704e-02 -1.12142600e-02 +9.12522823e-02 +5.01619093e-02 +1.01957917e-01 +7.22770765e-02 +1.50267780e-01 +1.85857087e-01 -3.22167501e-02 +8.32732618e-02 +1.39574096e-01 +1.53817236e-01 +2.04338551e-01 +8.65679681e-02 -8.32070783e-03 +1.55894026e-01 -8.27157199e-02 +1.94816157e-01 -2.04714690e-03 -6.94779977e-02 +9.30421576e-02 -1.19317517e-01 -5.48725054e-02 -6.74815103e-02 -3.76216322e-02 -1.00027055e-01 +2.05757357e-02 +3.95609960e-02 +1.36021540e-01 +1.32860035e-01 -5.53032160e-02 +1.64746553e-01 +3.68009619e-02 -1.67007953e-01 +1.08954363e-01 -4.24854923e-03 -1.87421232e-01 -1.01783082e-01 -3.20629328e-02 +2.29634512e-02 +2.35950407e-02 +7.12953582e-02 -1.18351288e-01 -9.16194916e-02 -2.97162887e-02 -4.87444513e-02 +3.09785213e-02 -1.00040913e-01 +2.93039419e-02 -3.69425565e-02 +1.37253225e-01 -1.46618977e-01 -1.17290784e-02 +1.05522737e-01 -8.04155692e-02 -5.24352975e-02 -7.76491389e-02 +3.70341726e-02 +6.10204898e-02 +8.87350664e-02 +5.54639623e-02 +7.78773874e-02 -7.17914701e-02 +2.83309463e-02 +7.32509941e-02 +7.40098432e-02 +2.12980062e-02 -1.46081313e-01 -1.01291575e-01 +9.22647417e-02 +1.05311632e-01 -1.11484248e-02 -1.92826986e-02 -1.12512060e-01 +2.50093881e-02 +7.67262429e-02 -9.90949012e-03 +2.20355280e-02 +7.60294199e-02 -2.09443029e-02 +1.43330485e-01 +3.14366892e-02 -8.21073800e-02 +7.90295228e-02 -2.66973414e-02 +1.81794930e-02 +4.90296371e-02 +3.53675112e-02 +1.76855922e-02 +7.82850161e-02 -1.32615328e-01 +1.15181454e-01 -1.18540961e-03 -3.79947871e-02 -2.43190415e-02 -6.37123734e-02 -3.86770293e-02 +5.44635803e-02 +6.72668591e-02 -1.01839062e-02 +6.74128458e-02 +1.41006365e-01 +1.43228918e-01 +6.34935647e-02 +1.19675376e-01 -6.41027540e-02 +1.67938679e-01 +1.59397691e-01 +6.18628077e-02 +7.07115680e-02 +4.66346256e-02 -8.70941114e-03 +7.65530318e-02 -8.76129270e-02 -2.17465423e-02 +1.43343676e-02 -4.87286523e-02 +5.84419444e-02 +2.92563550e-02 -3.05179018e-03 -7.88496733e-02 -5.51738217e-03 +2.48241335e-01 -2.95909438e-02 +1.65662304e-01 -1.08067645e-02 -1.35286018e-01 +8.18731934e-02 +1.84097469e-01 -1.00453563e-01 +7.43317753e-02 -5.83586581e-02 +6.33518174e-02 +1.23046927e-01 +1.45357907e-01 +4.90131006e-02 +1.39443889e-01 -1.14834234e-01 -1.02239557e-01 -1.36073381e-02 -3.67968753e-02 -3.12821157e-02 +1.12625726e-01 +1.65602416e-01 -4.18344103e-02 +1.17161259e-01 -8.92911330e-02 -5.11165243e-03 -4.36963625e-02 +3.94339375e-02 +5.34089468e-03 -4.70993482e-02 +1.82886526e-01 +3.38622592e-02 -6.62069619e-02 -9.60235894e-02 -2.71221735e-02 -8.02844390e-03 -1.16573676e-01 +1.71316162e-01 +3.11133508e-02 -5.04130833e-02 -4.46373411e-02 -1.18427314e-01 +6.88442886e-02 +3.22489180e-02 +5.07130399e-02 +1.46976367e-01 -2.49552634e-02 -2.18978360e-01 +6.87594712e-02 -2.05807714e-03 -1.03218824e-01 +2.40144245e-02 +1.29109127e-02 -4.76999842e-02 +2.32894525e-01 -6.94477260e-02 -1.95137531e-01 -8.45836103e-02 -5.71160764e-02 +1.72303617e-01 -1.52985185e-01 +9.85944644e-02 +7.69451493e-03 -1.13815092e-01 +4.45090421e-02 +2.56584346e-01 -3.41785932e-03 -2.17619106e-01 -3.23839076e-02 -1.77946776e-01 +9.11867991e-02 +5.12240734e-03 +6.84579834e-02 +7.04076812e-02 -2.83126421e-02 -7.22302422e-02 -1.27371177e-01 +2.56944690e-02 -1.16330593e-04 -1.32433087e-01 +7.93642700e-02 -5.82357273e-02 +1.26826882e-01 -4.42556776e-02 +3.63005698e-02 -4.12450545e-02 +1.84673935e-01 +2.49528438e-02 +4.32036929e-02 -1.02950998e-01 -7.23574236e-02 -6.31515905e-02 +3.25585417e-02 -5.64106628e-02 +2.25217789e-01 +1.63163528e-01 +1.54050767e-01 +9.98781547e-02 +4.99198325e-02 -2.14191392e-01 +4.20970507e-02 -2.22332731e-01 -7.03018084e-02 -9.23226550e-02 -4.40023839e-02 +1.04821146e-01 -4.92459955e-03 +2.92634056e-03 -1.06674843e-01 -1.29112266e-02 +1.14342414e-01 -1.70694888e-02 +3.41426656e-02 +3.63117293e-03 +1.34009004e-01 -8.58994797e-02 +1.23904802e-01 -6.62736818e-02 +7.30046406e-02 +3.37687656e-02 +1.09154329e-01 +7.44604468e-02 +9.67816333e-04 -7.06432834e-02 -9.86009743e-03 +4.36147191e-02 +1.19113192e-01 +3.08393855e-02 -8.96543190e-02 -4.98534702e-02 +2.38851309e-02 +5.61854281e-02 -3.83730568e-02 -1.86385382e-02 -3.33114751e-02 +8.72507244e-02 -7.98784196e-02 +2.90325936e-02 +1.01117482e-02 +1.06488891e-01 +9.38441679e-02 +8.14374387e-02 -6.13409691e-02 +1.57752559e-01 +1.27395689e-01 +3.32343169e-02 +1.23488791e-01 +8.34577531e-02 +7.67966285e-02 -2.48675477e-02 +8.55185166e-02 +3.45609449e-02 +1.12868614e-01 +5.54520339e-02 -9.51897278e-02 +7.65900128e-04 -5.88169806e-02 +1.08233847e-01 -8.07452723e-02 -2.27719210e-02 +1.68377385e-02 -7.16407672e-02 +7.96929225e-02 -5.70276938e-02 +1.00305088e-01 +4.43859696e-02 +5.55772074e-02 -9.38026458e-02 +4.24605571e-02 +8.94913226e-02 +4.02657464e-02 +4.67683896e-02 -7.71491602e-02 -1.12990990e-01 -1.21241407e-02 +9.79557261e-02 -3.26813944e-02 +8.32515061e-02 +6.54930919e-02 +1.85849220e-02 +4.68747318e-02 -1.10310458e-01 -3.86528522e-02 +8.77055749e-02 +2.80653276e-02 +7.38259628e-02 -2.93678399e-02 -2.06427202e-02 +1.26096845e-01 -2.93158609e-02 +6.60482794e-02 -1.08238854e-01 +1.09283932e-01 +2.70089060e-02 -8.92113671e-02 -9.62629467e-02 +2.12362153e-03 -1.08080260e-01 +7.79416859e-02 +9.75383148e-02 -1.20248705e-01 +1.20857604e-01 +7.81467482e-02 +1.26557961e-01 +1.03847072e-01 -8.73322710e-02 +5.05510196e-02 +1.66601203e-02 -9.33175012e-02 -1.02741003e-01 -1.45855427e-01 +4.86066118e-02 -1.39904320e-01 +9.30684209e-02 -4.31143604e-02 -1.68967351e-01 -3.03507820e-02 -3.03989789e-03 +1.32532343e-01 +7.63491988e-02 +4.85976301e-02 -1.02905504e-01 +1.31078437e-01 +7.51181170e-02 +1.24261990e-01 +2.65143905e-02 +1.16113394e-01 -8.37865993e-02 +1.69913955e-02 +9.99472812e-02 -9.58379358e-02 +1.13769494e-01 -4.11917903e-02 +3.32782008e-02 -1.17497690e-01 +6.31884336e-02 -9.79569834e-03 -7.13438392e-02 +6.52186200e-02 +1.38832256e-02 -2.05098055e-02 +1.08746134e-01 -1.92944761e-02 -2.78331731e-02 -1.27163399e-02 +1.46335021e-01 +5.14516011e-02 -5.14107235e-02 +2.32003462e-02 -4.01905328e-02 +5.85525408e-02 +5.33178560e-02 +1.03720486e-01 -3.49971689e-02 -9.58456248e-02 -7.69681185e-02 +9.99883264e-02 +2.21899852e-01 -4.97709326e-02 -1.43480236e-02 +6.19970746e-02 +7.51570687e-02 +1.21409185e-01 +2.76442757e-03 -1.74896270e-01 -3.69287580e-02 +1.08292758e-01 +1.13899000e-02 +1.43676504e-01 -1.69989929e-01 -1.14805497e-01 +8.22991207e-02 -3.94049771e-02 +4.52152044e-02 +1.16251916e-01 -5.09270690e-02 +7.28522912e-02 +6.90813735e-02 +1.11698553e-01 +1.36909008e-01 +1.64969694e-02 +9.32601392e-02 -6.35393262e-02 +1.94012618e-03 -1.02177449e-02 -1.57286614e-01 -2.09670048e-02 +2.42506843e-02 +1.01409247e-02 -6.99220076e-02 +1.17909625e-01 +1.49951309e-01 +3.26975770e-02 +9.13537815e-02 +1.19825236e-01 +2.71165967e-01 -6.47136942e-02 -2.87657250e-02 +1.84637122e-02 +1.02979630e-01 -5.36164008e-02 -2.62679681e-02 -9.82666165e-02 -1.46948978e-01 +7.19864368e-02 +1.40254393e-01 -6.39704019e-02 -1.31503306e-02 +5.81690818e-02 -2.94752140e-02 +8.17646906e-02 -5.19419424e-02 +5.40176965e-02 +1.21297255e-01 -1.92099452e-01 +4.78039160e-02 -1.24589711e-01 +2.39054948e-01 -7.77617916e-02 -6.75312069e-04 -5.20705581e-02 +1.31048813e-01 -3.17232907e-02 -1.99762046e-01 -4.76369336e-02 -1.46557808e-01 +1.24356396e-01 -1.70249909e-01 +1.36447296e-01 +6.75405413e-02 +5.28436601e-02 -9.52953026e-02 +6.70268014e-02 -1.87307522e-02 +5.26973233e-02 -1.18768610e-01 +5.38141094e-02 +5.05265556e-02 +1.90181106e-01 +1.78695306e-01 +3.19429561e-02 +1.67039454e-01 +1.79781184e-01 +2.84768939e-01 -1.05950326e-01 +1.31913889e-02 -7.98476338e-02 +5.58365174e-02 +3.60981561e-02 +6.63462356e-02 +1.82487547e-01 +3.46081592e-02 +1.74838137e-02 +1.03691556e-02 -1.15223028e-01 +7.76325539e-02 -7.62268677e-02 -1.23803668e-01 -1.19904615e-01 +1.84837326e-01 +1.25556067e-01 +6.97673559e-02 +7.24669769e-02 +2.35444546e-01 -4.19976562e-02 +7.63414204e-02 +6.92458004e-02 +5.62534370e-02 +3.15325707e-01 +1.71380192e-01 +1.34702668e-01 +2.56892946e-02 +3.48583758e-02 +4.15268950e-02 -4.54081111e-02 +5.11827469e-02 -3.72848548e-02 +1.17492005e-01 +8.90338793e-02 +1.94798127e-01 +2.48873997e-02 +1.43652767e-01 +1.97589453e-02 +1.83259826e-02 +1.20072521e-01 -3.65693457e-02 -7.14938641e-02 +1.15453251e-01 +4.73782085e-02 +1.78823113e-01 -5.50267920e-02 +1.64274663e-01 +1.54167518e-01 -9.23269764e-02 +8.52091908e-02 +2.51744185e-02 +5.46356775e-02 +1.60501048e-01 -3.22390795e-02 +5.86113967e-02 +6.70494661e-02 -5.22081703e-02 -7.31538460e-02 +2.28807554e-01 -1.42908856e-01 +1.50108948e-01 -3.19731096e-03 +3.50869424e-03 +4.23097461e-02 +9.65475962e-02 -4.15748768e-02 -1.33261112e-02 +1.03648126e-01 +1.61252007e-01 +1.42744035e-01 +1.11628897e-01 +4.79525439e-02 -8.32799375e-02 -3.18742869e-03 +1.44063979e-01 +4.84787673e-02 +1.14354558e-01 +1.92148164e-01 -2.00642049e-01 +6.61237389e-02 +9.01251584e-02 -1.49916962e-01 -8.85221884e-02 +3.56338806e-02 +1.33383870e-01 +2.08163299e-02 +2.02306733e-02 -1.92333072e-01 +6.21727817e-02 -9.49525386e-02 +4.66373116e-02 -1.31115466e-01 +2.34365705e-02 -7.60359764e-02 +1.96034834e-02 -6.32604361e-02 -1.39131024e-01 -1.02891393e-01 +4.89716269e-02 -1.00189410e-01 +2.05748733e-02 +3.73249464e-02 +2.17976812e-02 +2.04930399e-02 -1.77433938e-02 -9.30618271e-02 +5.49425138e-04 -4.36986908e-02 -1.12118997e-01 -6.04908466e-02 -6.46532252e-02 -5.28772473e-02 +7.87996277e-02 +1.18572064e-01 -6.11193292e-02 -4.01790291e-02 -3.21055204e-02 +8.73077661e-02 -1.55165553e-01 -1.33879796e-01 -3.45197506e-02 -8.96432623e-02 -5.52847469e-03 -1.05344050e-01 +5.39583787e-02 -5.96212521e-02 -9.32382122e-02 +9.65136290e-02 -9.67053100e-02 -3.87395099e-02 -5.24163023e-02 -1.09240569e-01 -5.59273362e-02 +1.27536252e-01 -9.18261632e-02 -5.98014928e-02 +3.89994159e-02 -8.31433106e-03 -1.13491029e-01 +4.62648384e-02 +1.03252083e-01 +9.41118747e-02 +7.23651871e-02 +1.67746738e-01 +6.53683245e-02 +1.35098547e-01 +2.96064690e-02 +7.86187127e-02 +1.01310477e-01 +1.54076636e-01 +5.22140190e-02 +4.20532674e-02 +1.87057316e-01 -2.75636390e-02 +2.04508193e-02 -1.81999989e-02 +7.45103583e-02 +1.46880254e-01 +1.61031783e-01 -1.39530078e-02 +1.69891492e-01 +9.71857905e-02 +1.02854095e-01 +1.70185670e-01 +1.61765739e-01 -6.26992211e-02 +5.47242165e-02 +8.24172944e-02 +6.86801150e-02 +1.67286351e-01 -1.65742356e-02 +6.07648827e-02 -8.77202600e-02 +1.58703893e-01 +2.45179236e-01 +7.00754300e-03 -1.06096402e-01 +1.92163274e-01 +1.87264368e-01 +1.17407478e-02 +1.47949249e-01 -6.96431473e-02 -1.55922219e-01 +1.08782031e-01 +1.01872250e-01 -7.39418715e-02 +9.18077603e-02 +2.85398196e-02 +1.46912724e-01 +4.51300815e-02 +4.69782017e-02 +1.38309032e-01 +8.96668062e-02 +8.24928209e-02 -1.91435702e-02 +8.08049664e-02 +2.23297641e-01 +1.10618584e-01 +5.66656329e-02 -4.84676734e-02 -4.71458808e-02 +1.42315641e-01 +8.95675123e-02 -1.28563596e-02 -3.58104706e-02 +1.63148679e-02 -1.80668365e-02 -7.10464874e-03 +2.71746665e-02 -3.27761769e-02 -2.77153730e-01 +2.67501883e-02 +1.37939051e-01 -2.36732870e-01 -9.54674650e-03 +8.72647855e-03 +1.24011524e-01 -1.12149179e-01 -1.22956954e-01 -1.81424797e-01 +1.47944093e-01 +3.64593454e-02 +4.46820073e-02 -9.24713686e-02 -7.57926926e-02 -1.30864941e-02 +5.62712252e-02 -1.44900009e-01 +1.55480281e-01 +2.84708608e-02 -4.95546721e-02 +1.07215963e-01 +1.98474437e-01 +8.12754110e-02 -1.50288135e-01 +2.19167933e-01 -1.03407865e-05 +9.57181305e-02 -1.85907513e-01 +1.24332979e-01 +1.89895272e-01 +4.01225276e-02 +5.85127175e-02 +5.67656904e-02 +7.45094717e-02 -8.07230100e-02 -1.06172539e-01 +2.21691683e-01 +7.18639940e-02 +2.29591697e-01 -1.80734500e-01 -8.33669081e-02 -2.25703701e-01 +2.61870474e-01 +3.68019678e-02 -4.43575904e-02 -7.09886625e-02 -1.53699040e-01 -4.09198962e-02 +1.08949468e-01 -1.50136009e-01 +1.70472905e-01 +7.44924322e-02 -8.52480978e-02 -7.61906151e-03 -6.65299296e-02 -8.91262814e-02 -5.48536293e-02 +2.52846070e-02 +8.39554444e-02 +4.91596535e-02 -1.94113120e-01 -1.84738263e-01 +1.29638975e-02 -1.83965772e-01 -5.42443395e-02 -5.54156974e-02 -6.32495657e-02 +5.75450696e-02 -8.80739912e-02 -5.90746664e-03 +4.74067591e-03 -8.22692215e-02 -1.78490609e-01 +5.63786700e-02 -3.42426188e-02 +5.82001731e-03 -1.09694466e-01 -6.61793351e-02 -1.61227226e-01 +2.76188273e-02 -1.08060524e-01 -1.46324739e-01 +1.78445857e-02 -1.08279310e-01 -1.62757307e-01 -1.42139658e-01 +5.56707894e-03 -1.24276672e-02 -7.37910112e-03 -2.29634851e-01 +4.15443964e-02 -9.23385024e-02 +2.30436679e-02 +2.47820821e-02 +7.24842921e-02 -1.45994052e-01 -6.98552355e-02 -1.45719394e-01 +6.20576739e-02 +1.24558397e-01 +2.85422876e-02 +5.65994754e-02 -1.92377985e-01 -1.89994738e-01 +8.10407400e-02 +7.98239037e-02 -1.42124519e-01 -2.14096010e-01 +4.60065752e-02 -3.99696529e-02 +1.94182694e-02 +4.21464816e-02 -2.45367289e-02 -1.44002303e-01 -1.77462727e-01 -1.06067844e-01 -1.19005300e-01 +1.02998130e-01 -1.44630790e-01 -1.26055196e-01 +2.36778017e-02 -2.00652450e-01 -7.86782801e-02 +4.50356305e-02 -1.19564772e-01 -1.29845664e-01 +1.24883063e-01 -1.56260468e-02 +6.35212883e-02 -5.75119406e-02 +1.18409917e-01 -9.88033116e-02 +1.17583409e-01 +1.15969613e-01 +1.24166757e-01 -8.97543412e-03 +1.34013548e-01 +9.61038470e-02 -9.15408283e-02 -1.75240368e-01 -2.31670067e-02 +8.06608200e-02 -9.06322896e-03 +9.95338708e-02 +7.20197335e-02 -8.51136893e-02 +7.42853954e-02 +1.43341377e-01 -1.48283228e-01 +4.05770876e-02 +4.27344292e-02 -1.02705121e-01 -1.20277070e-01 +8.96788687e-02 +8.71900097e-02 +9.21644911e-04 +1.98292807e-02 -1.07096240e-01 -1.39795933e-02 -5.75917475e-02 +1.31341025e-01 -4.17922772e-02 +1.11900471e-01 -8.82243365e-02 +1.35957196e-01 -1.14497148e-01 +5.55481873e-02 -1.33433761e-02 -6.09833375e-03 +1.08092256e-01 +2.87496708e-02 +2.48612892e-02 -9.04649645e-02 +1.93255872e-01 +1.71838589e-02 -1.38293123e-02 +8.59174356e-02 -5.93204126e-02 +1.05152801e-01 +6.82888627e-02 -6.87277243e-02 +9.44873244e-02 +2.75416542e-02 +6.45329431e-02 +1.00275598e-01 +8.67519826e-02 +1.69358298e-01 +6.44182861e-02 -1.56972200e-01 -4.31534871e-02 -5.48534133e-02 -3.14593315e-02 +8.89979526e-02 -1.59965351e-01 -7.22233728e-02 -1.81539819e-01 -2.23248824e-01 -1.58540338e-01 +2.68903803e-02 -1.22685559e-01 -3.41216587e-02 -1.31162331e-02 -1.09495651e-02 -8.85283127e-02 -2.43360728e-01 -1.14618465e-01 -1.34033456e-01 -6.00776710e-02 -8.16516578e-03 -8.19353089e-02 -3.54870036e-02 -3.12276017e-02 -1.00893833e-01 -1.77999645e-01 -1.70239568e-01 -4.77791205e-02 +1.28265256e-02 -2.23084047e-01 -1.29246891e-01 -1.62107229e-01 +9.00337920e-02 -1.83993295e-01 -1.81610554e-01 -2.10607767e-01 -8.50289762e-02 -4.05507907e-02 +6.18505329e-02 -1.06004186e-01 +4.41560112e-02 +2.23350227e-02 -9.96494368e-02 -4.06024680e-02 -6.39952719e-02 -1.86572984e-01 -2.07786307e-01 -1.11084297e-01 +1.07967677e-02 +1.57494769e-01 -2.22175270e-01 -5.55924661e-02 +8.35700482e-02 -1.37650266e-01 -1.41586944e-01 +6.40701056e-02 -1.29422173e-01 -6.02623299e-02 -8.21620375e-02 -4.28455211e-02 -1.26428112e-01 -1.88879505e-01 -8.60973522e-02 -2.85567850e-01 +1.24429852e-01 -9.67658416e-04 +1.25414178e-01 +1.18542746e-01 +1.08804084e-01 -2.46149600e-01 +2.06135720e-01 +1.91229478e-01 +1.56773590e-02 +1.34857953e-01 +1.04625538e-01 +2.10312661e-02 -9.03334841e-02 +5.75263426e-02 -1.54625252e-02 -9.03244913e-02 +1.13546088e-01 -1.19221434e-01 +1.91653058e-01 -1.99154362e-01 +9.39852446e-02 -3.16860899e-02 +5.16696228e-03 +2.05539003e-01 -7.41439760e-02 -2.56829321e-01 -1.32773310e-01 +1.13122016e-01 -1.82943240e-01 +1.09839067e-01 -1.40921012e-01 +1.15270123e-01 -1.55871108e-01 -5.32761440e-02 -5.02176657e-02 -7.96133652e-02 -3.78054418e-02 -1.07469633e-01 -1.16913170e-01 +1.88103527e-01 -2.83987790e-01 -2.12405011e-01 -2.25961402e-01 -7.93689489e-02 +1.01907037e-01 -1.55827310e-02 -1.60172775e-01 -1.31861225e-01 +1.34714872e-01 -8.03005472e-02 +2.07202625e-03 +7.40938485e-02 +9.25336406e-02 +1.85422618e-02 -2.79548317e-01 -1.49258584e-01 -7.29533732e-02 -2.86957622e-02 +1.97032765e-01 +1.29068375e-01 +1.87240951e-02 +1.07896484e-01 -5.16060553e-02 -4.46526967e-02 -2.73139067e-02 -6.79112002e-02 -1.43643007e-01 -1.08604252e-01 -7.13644773e-02 -3.54752014e-03 -1.98771909e-01 -1.39886990e-01 -1.46687835e-01 -1.38961941e-01 +1.01641618e-01 -1.08114064e-01 -1.01689242e-01 -4.15973626e-02 -5.81816584e-02 -2.79138759e-02 -7.50584644e-04 -4.58058231e-02 +2.61666663e-02 -2.90374514e-02 -4.51926254e-02 -6.76588714e-02 +1.14620419e-03 +1.46665331e-02 -1.45725638e-01 -6.08746223e-02 -6.41546817e-03 -9.54046026e-02 +4.67232205e-02 +2.40350347e-02 -1.36129692e-01 -8.03731754e-02 +9.77359861e-02 -9.24375132e-02 -1.82205275e-01 +1.16667598e-01 -4.86118495e-02 -1.50464997e-01 -2.37929642e-01 +1.25941589e-01 +1.17836207e-01 -1.22194663e-01 -2.64395028e-03 +5.59707321e-02 +7.27932602e-02 -8.86866376e-02 -1.18467212e-01 -5.68013676e-02 +1.09932803e-01 +2.87302560e-03 -1.49507761e-01 -3.74189243e-02 +3.88102233e-02 -7.89810494e-02 -1.05111264e-01 -7.72145763e-02 -1.13219656e-01 +6.98755756e-02 +5.65164350e-02 +6.44585937e-02 -9.63530168e-02 -1.62824262e-02 -4.69594784e-02 +3.25994939e-02 +2.17614993e-02 +9.71208364e-02 +1.27687246e-01 +1.28308758e-01 -1.29014969e-01 -3.86728980e-02 -5.94546944e-02 +2.73220129e-02 -9.74844098e-02 +4.87551019e-02 -2.47299951e-02 -2.75979117e-02 +1.52605530e-02 +7.69551918e-02 +7.39887506e-02 -4.94384244e-02 +5.80918863e-02 -6.32145852e-02 -1.21852756e-01 -1.69443917e-02 +6.39562756e-02 +1.03478491e-01 -1.09802812e-01 +1.21091783e-01 +6.09917101e-03 -1.65663466e-01 +8.26006979e-02 -3.21809761e-02 +1.28924385e-01 +8.86456370e-02 +1.54460846e-02 +6.27775565e-02 -1.22083150e-01 -2.74405219e-02 -1.04325183e-01 +5.54260239e-02 -3.57721858e-02 -1.38417646e-01 -1.36620020e-02 -6.00097068e-02 +3.63609791e-02 -1.01298176e-01 -8.58304128e-02 -4.21851091e-02 +1.35852359e-02 -2.34967247e-02 +6.49837852e-02 -1.17007941e-01 -1.77349988e-02 +3.72408554e-02 -5.31352870e-02 +1.44834101e-01 -1.09040579e-02 +3.79561447e-02 -1.17943890e-01 -5.96844628e-02 +8.98891836e-02 -1.14247106e-01 -8.98213163e-02 +1.05879717e-01 +1.35999426e-01 -2.25769393e-02 +1.16617993e-01 +8.26578066e-02 +1.06582284e-01 +1.58118382e-02 -1.92005690e-02 -2.30372716e-02 +4.39694114e-02 -1.87681208e-03 -1.57825530e-01 -8.94114003e-02 -9.60819721e-02 -8.02131952e-04 -9.86346137e-03 +8.97925720e-02 +1.03838397e-02 +1.11751743e-01 +8.97748098e-02 +6.59639016e-02 -1.51741892e-01 -1.13063686e-01 +5.28570823e-02 -3.34610394e-03 +2.29203571e-02 -1.50637284e-01 -1.50536448e-01 -9.90661755e-02 -5.26075773e-02 -1.73989892e-01 -7.73116723e-02 -1.64197400e-01 -5.51415980e-02 +6.26997203e-02 +3.69129963e-02 +1.01365186e-01 -1.72101669e-02 -5.54355122e-02 -8.41301605e-02 -1.61283553e-01 -5.66441230e-02 +8.67182463e-02 +3.82159278e-02 +2.78076660e-02 +1.17700007e-02 -1.14807695e-01 -1.02218248e-01 -1.49051640e-02 -8.48563686e-02 -1.28935754e-01 -5.71377911e-02 -8.75631422e-02 -4.35587466e-02 -1.14233106e-01 -1.77337274e-01 +1.07154705e-01 +1.17977656e-01 -1.17833316e-01 -1.27606124e-01 +1.33840010e-01 +1.63040925e-02 -9.83748659e-02 +4.88011213e-03 -1.48544684e-01 -9.78692546e-02 -1.28562078e-01 -1.54651806e-01 -8.61904174e-02 +1.94113448e-01 +7.09309652e-02 +5.64588122e-02 +6.87222779e-02 -9.61880907e-02 -1.40922159e-01 +5.03251515e-02 +9.81604382e-02 -3.12958658e-02 +3.36461775e-02 -1.60533592e-01 -2.12917774e-04 +1.24142967e-01 -7.88828805e-02 -2.31076807e-01 -1.11355834e-01 +7.05441087e-02 +1.59448549e-01 +1.58134624e-01 -1.78352371e-01 -5.34387603e-02 +5.44413982e-04 -1.28471982e-02 -1.04953274e-02 -2.44563073e-01 -1.99166723e-02 -1.05100445e-01 +1.02664754e-01 +4.86607924e-02 +2.48512864e-01 -2.67178956e-02 +1.05214089e-01 +8.56982693e-02 -1.02791965e-01 -7.33247697e-02 -2.28670388e-02 -4.18087095e-02 -2.41439298e-01 +2.85397507e-02 +2.76065141e-01 -1.25747621e-01 -1.38827592e-01 -1.23144515e-01 -9.42515582e-02 +1.08951047e-01 -4.25216518e-02 -7.38646323e-03 -1.76950246e-01 -3.56346518e-02 -6.03287257e-02 +1.30167857e-01 -1.31565958e-01 -7.16127753e-02 +1.63644835e-01 -5.15247360e-02 -4.83547784e-02 +3.45453843e-02 -2.81363614e-02 +6.24460131e-02 +1.74015671e-01 +8.94718543e-02 +1.18892059e-01 -1.08096205e-01 +1.00799672e-01 +4.81626168e-02 -8.54492113e-02 -6.56529292e-02 -8.95949230e-02 -4.72362153e-02 -1.29895462e-02 -1.17040955e-01 +1.07931448e-02 +4.78493348e-02 -1.66380644e-01 +8.14022645e-02 -8.67628008e-02 -5.75474743e-03 +7.74006266e-03 +3.77015304e-03 -1.08860329e-01 +1.81639323e-03 -1.76873580e-02 +8.89879838e-02 -1.24403410e-01 -7.02829435e-02 +9.09288600e-02 -1.40572727e-01 +2.37496546e-03 -2.14986488e-01 +2.29930263e-02 -1.15158238e-01 -1.76677126e-02 +9.77731794e-02 -1.91311330e-01 -1.68875188e-01 -1.50054380e-01 +4.29634340e-02 +3.67447436e-02 +2.83083171e-02 -1.28281921e-01 +2.83230245e-02 -6.17471449e-02 +6.09019473e-02 -6.33339733e-02 -9.31153372e-02 -1.18157402e-01 +3.23784864e-03 -1.14389032e-01 -7.37930462e-02 -8.35930333e-02 -1.04167879e-01 +2.34670229e-02 -3.67702283e-02 -5.57227507e-02 -2.65375581e-02 +7.37445056e-02 -6.62739202e-02 +8.48087147e-02 -8.71177167e-02 -1.49759263e-01 -1.13296449e-01 -1.10344581e-01 +5.85559532e-02 +9.23099145e-02 +9.36078280e-02 +2.90299300e-03 -3.24601978e-02 -8.16194154e-03 +1.23147480e-01 -5.36320619e-02 +3.86706218e-02 -8.49577859e-02 +6.19499795e-02 -1.24898210e-01 +5.38162477e-02 +9.89319105e-03 -8.82136375e-02 +5.85977361e-02 -1.01155259e-01 -4.78854999e-02 -9.49891657e-02 -1.49154514e-01 +6.79323375e-02 +2.29610596e-02 +1.35528268e-02 +1.16009369e-01 +9.49349105e-02 +2.52095633e-03 +5.64587265e-02 -1.78767312e-02 +8.47656094e-03 -7.44569898e-02 -6.72483351e-03 -6.42329603e-02 +6.53531775e-02 -1.00488201e-01 -1.08182177e-01 -1.07958071e-01 -1.48725614e-01 -8.54727463e-04 -3.82722393e-02 +1.22344447e-02 +3.40383239e-02 +5.82414977e-02 -3.43217738e-02 -4.12173383e-02 -4.50124182e-02 +7.31814355e-02 -1.14326946e-01 +5.84921837e-02 -7.95763358e-03 -8.46002996e-02 +5.59364557e-02 +1.42858392e-02 -2.24370491e-02 +1.08524941e-01 +6.14412017e-02 -1.19452924e-01 +5.24059264e-03 -5.05165085e-02 -8.39053765e-02 +5.43504171e-02 +1.21295210e-02 +1.01385370e-01 -1.16106905e-01 -1.72445122e-02 -1.02150686e-01 +8.80362187e-03 +3.34137902e-02 -2.24648919e-02 -7.45109022e-02 +6.47035390e-02 -1.36142552e-01 +2.63946410e-03 -2.32511107e-02 -4.79895249e-02 -1.51673034e-01 -1.19908839e-01 -9.60411429e-02 +3.29470560e-02 +4.39550839e-02 -1.14667095e-01 -6.19801097e-02 +1.53566869e-02 -1.74492463e-01 -4.67110202e-02 -2.43296549e-02 -9.57328975e-02 +1.71459746e-02 -8.46408457e-02 -1.86270446e-01 -1.58104017e-01 +1.66001078e-02 +5.88746890e-02 +8.90571997e-02 +1.12208523e-01 -1.28014907e-01 -1.71056151e-01 +7.63814747e-02 -1.52061209e-01 +4.33058254e-02 -1.60603434e-01 -1.78272873e-01 +1.41167035e-02 -8.81882161e-02 -1.22840069e-01 -2.19789222e-02 +6.05311096e-02 +6.76518530e-02 -1.03936657e-01 +7.33884498e-02 +1.40137523e-01 +9.65375379e-02 -3.80312018e-02 +5.75017594e-02 -1.44914836e-01 -3.22861150e-02 -1.18069895e-01 -1.96717083e-01 -6.34191632e-02 -1.27434358e-01 +3.88932452e-02 -3.74493264e-02 -9.71295089e-02 +6.90605268e-02 +5.96473478e-02 +4.06005830e-02 -5.52678555e-02 -1.56743720e-01 -7.06810504e-02 +6.11198787e-03 -3.28793749e-02 +7.11243823e-02 +5.75163513e-02 -9.67372488e-03 -7.16241971e-02 -2.40462292e-02 +2.02034235e-01 -1.00227252e-01 +6.28794655e-02 +1.40809193e-02 -1.65707655e-02 +1.37405112e-01 +1.69357985e-01 +9.16702971e-02 +1.77191272e-01 -1.10917957e-02 -2.49123462e-02 -3.81649211e-02 +6.61248434e-03 -7.53143877e-02 -1.94563031e-01 +6.12638295e-02 -7.82634243e-02 -7.50387684e-02 -1.62407726e-01 +5.40177189e-02 -6.51840121e-02 -9.36519951e-02 -1.10051319e-01 -1.14107125e-01 -1.12289369e-01 -5.10458834e-02 +1.54300287e-01 -5.32053486e-02 +2.32552737e-01 -6.69990033e-02 +3.81084122e-02 -1.22196026e-01 -1.02397025e-01 +3.34317423e-02 +5.42642660e-02 +1.04217038e-01 -1.43000454e-01 -6.35015825e-03 +1.60078704e-01 -1.18668109e-01 -1.31780490e-01 +4.11308110e-02 +5.17932959e-02 +1.93033740e-01 -1.05657563e-01 -3.87349166e-02 -6.96520954e-02 +5.78013211e-02 +6.33181408e-02 +5.30500114e-02 -6.82659596e-02 +1.29128680e-01 +1.06366917e-01 -9.18373689e-02 -1.75212976e-02 +4.49797958e-02 -2.10051276e-02 +1.18540756e-01 +1.06115691e-01 -8.35309923e-02 +2.10492089e-01 -5.96599001e-03 -1.28900319e-01 +5.40935360e-02 +9.88216400e-02 +7.49537647e-02 +2.57273801e-02 -3.67430039e-02 +7.19427094e-02 -3.07032764e-02 +1.34756356e-01 +6.36128560e-02 +7.70267472e-02 +1.15473747e-01 +5.17663807e-02 +4.17552441e-02 -1.02707341e-01 +9.45629552e-02 +1.84262823e-02 -1.17208354e-01 +2.69293170e-02 -1.65253684e-01 -2.81287003e-02 +9.56026986e-02 -2.57732328e-02 +8.27413946e-02 +1.51688857e-02 +1.97879672e-01 +1.93596128e-02 +8.79858285e-02 -1.08055241e-01 +1.14099853e-01 +6.85735494e-02 -1.09869346e-01 +6.85650259e-02 -5.63554140e-03 -7.51915351e-02 +5.85818775e-02 +1.26510590e-01 -9.29130837e-02 +1.57124996e-01 -3.14962468e-03 -3.30317840e-02 -5.48056141e-02 -7.98697248e-02 -5.22290654e-02 -1.12472802e-01 +5.81522249e-02 -1.43888012e-01 +5.52657135e-02 +1.02977417e-01 -7.93397799e-02 +6.64862990e-02 +1.00254871e-01 +1.22101761e-01 +2.69006733e-02 +9.83237103e-03 +6.63126260e-03 +8.80042613e-02 +7.36899674e-02 -1.78858247e-02 +8.92714709e-02 -7.29877874e-02 -7.74174184e-02 +9.26012993e-02 -9.34480950e-02 -4.91817892e-02 +7.65720457e-02 +2.76166983e-02 -3.58920880e-02 +1.70151681e-01 +1.13340482e-01 +4.43753302e-02 +1.42433092e-01 +5.30105531e-02 -7.44663924e-02 +1.96926948e-02 -8.04249346e-02 +6.17575422e-02 -1.00270428e-01 +6.99002147e-02 -8.42407271e-02 -2.64805071e-02 +7.93522373e-02 -5.49779367e-03 +3.21892723e-02 +1.24808690e-02 +2.84202639e-02 -9.82443690e-02 +7.48603567e-02 +9.75257382e-02 -3.33666317e-02 -8.41574296e-02 +1.13306910e-01 +4.65924069e-02 +1.07268915e-01 +6.30397648e-02 +1.09708138e-01 -8.08867663e-02 +1.35909960e-01 